{"layers": [{"w": [[-0.07401597499847412, 0.19117069244384766, 0.1938970386981964, -0.007731441408395767, -0.0006205409881658852, -0.3888815641403198, 0.28891721367836, -0.2699064314365387, 0.09800329804420471, 0.31079116463661194, -0.2804543375968933, -0.5280919075012207, 0.4227128028869629, -0.24125801026821136, 0.287537157535553, -0.014513421803712845, 0.25116732716560364, -0.48231929540634155, 0.2442246973514557, -0.08224713057279587], [1.181676983833313, -0.0736192837357521, -0.48701274394989014, -0.19598214328289032, 0.13380764424800873, 0.3077297806739807, 0.09509522467851639, 0.3092816174030304, -0.07487335056066513, -0.5597167611122131, -0.5067345499992371, -0.04075958952307701, 0.3709776699542999, -0.12241227924823761, 0.129524365067482, -0.27096864581108093, -0.10147140175104141, -0.012218423187732697, 0.1671767383813858, -0.2640170454978943], [0.7685880064964294, -0.33412104845046997, -0.43448466062545776, -0.16338516771793365, 0.37278124690055847, -0.2438550591468811, -0.0032211686484515667, -0.2753467261791229, 0.1279122680425644, 0.21615268290042877, -0.32823890447616577, 0.1135592833161354, 0.8219326734542847, -0.31876468658447266, 0.08959096670150757, -0.17855943739414215, 0.11166642606258392, -0.1629149615764618, 0.08102893084287643, -0.08544643223285675], [-0.1476462483406067, -0.04798207804560661, 0.780227780342102, 0.2342819720506668, -0.11745355278253555, -0.19303159415721893, 0.3369607627391815, -0.4437025189399719, -0.38116902112960815, -0.6731053590774536, 0.29276230931282043, -0.22706450521945953, 0.17224225401878357, -0.07396458089351654, -0.009719913825392723, 0.05764993280172348, -0.185348242521286, 0.09136804193258286, 0.27721866965293884, 0.14869165420532227], [-0.4286726117134094, -0.22039583325386047, -0.01746276766061783, 0.2442815899848938, 0.11411993205547333, 0.07681802660226822, -0.025133049115538597, 0.1675029993057251, 0.34574243426322937, -0.2635965943336487, 0.11730623245239258, 0.23304472863674164, 0.5767744779586792, 0.30472010374069214, 0.057933345437049866, 0.22446668148040771, 0.3438606858253479, -0.29482585191726685, -0.013228134252130985, -0.7296213507652283], [-0.9324395656585693, 0.015812836587429047, -0.3178197145462036, -0.4301126301288605, -0.2087172567844391, -0.25220635533332825, 0.26348698139190674, -0.03806176409125328, -0.3401503562927246, 0.09675905108451843, -0.2149304747581482, 0.05391383543610573, -0.07969636470079422, 0.39200159907341003, 0.11698638647794724, -0.04238061606884003, -0.2591972053050995, -0.000675123417750001, 0.01668500527739525, -0.7408162355422974], [0.049034491181373596, -0.056663211435079575, -0.12980270385742188, 0.002587351482361555, 0.10290166735649109, -0.4964539110660553, -0.17885655164718628, 0.2705684006214142, -0.10411432385444641, 0.011031551286578178, -0.49392032623291016, -0.13868121802806854, -0.27476322650909424, 0.35563433170318604, 0.21179264783859253, 0.5245422124862671, -0.17692594230175018, -0.2650030553340912, 0.10261017829179764, -0.19040006399154663], [-0.4277614951133728, 0.334311306476593, 0.8791613578796387, -0.07258175313472748, 0.014370972290635109, -0.12464158982038498, -0.23153291642665863, 0.2146330326795578, 0.30516958236694336, -0.35201025009155273, -0.377981573343277, 0.11319169402122498, -0.5271129012107849, -0.44718706607818604, 0.18133977055549622, 0.18124401569366455, 0.21722643077373505, -0.009865541942417622, -0.038188815116882324, -0.3611593544483185], [-0.5883244872093201, 0.13518765568733215, -0.14014513790607452, 0.2270013689994812, 0.07221018522977829, -0.40185242891311646, 0.546978235244751, 0.14351439476013184, 0.10936062783002853, -0.2483130544424057, -0.13135436177253723, -0.22138957679271698, -0.6832659244537354, 0.48107919096946716, 0.5861130356788635, -0.1941109448671341, -0.7257906198501587, 0.2332780510187149, -0.019271120429039, 0.12599636614322662], [-0.8692668676376343, 0.07182760536670685, 0.5227152705192566, -0.17575988173484802, -0.13211007416248322, 0.24690380692481995, 0.31917405128479004, 0.3977855145931244, -0.32473036646842957, -0.3620644807815552, 0.20397697389125824, 0.46027687191963196, -0.21614721417427063, 0.09127536416053772, -0.4661915898323059, -0.24115517735481262, -0.011418730951845646, 0.24450036883354187, -0.3047586977481842, -0.031618256121873856], [0.4289110600948334, -0.2904808521270752, 1.0006659030914307, 0.10846062749624252, -0.0008598677231930196, -0.6008193492889404, -0.19921179115772247, 0.4317813217639923, 0.38438183069229126, -0.18853726983070374, 0.20187321305274963, 0.2839394509792328, -0.08940776437520981, 0.29918599128723145, 0.09140072762966156, 0.028718266636133194, 0.01678604632616043, 0.16526064276695251, -0.22939828038215637, -0.17434698343276978], [0.34623703360557556, 0.2565878927707672, 0.2265087217092514, -0.19787243008613586, -0.017990469932556152, -0.19804167747497559, 0.09942971915006638, -0.022437015548348427, 0.08594344556331635, 0.5633876919746399, 0.9844947457313538, 0.20454911887645721, 0.02888389304280281, -0.10253801941871643, 0.01939704455435276, -0.04810085520148277, -0.02399500645697117, -0.3245328962802887, -0.2697874903678894, 0.0698658749461174], [-0.6280684471130371, 0.061132483184337616, 0.551667332649231, 0.18059274554252625, 0.06657897680997849, 0.10068244487047195, -0.0023862679954618216, 0.4351465404033661, 0.03590180724859238, 0.10785278677940369, -0.13602200150489807, -0.31900453567504883, -0.3555687963962555, 0.47483640909194946, 0.023610960692167282, 0.36992642283439636, -0.28736454248428345, -0.3533824384212494, -0.3170657753944397, 0.268351286649704], [0.16330845654010773, 0.23005948960781097, 0.1370656043291092, -0.20373159646987915, -0.01488545536994934, -0.03256210684776306, -0.4729725420475006, -0.22568345069885254, 0.55617755651474, -0.1087600365281105, -0.10125529021024704, 0.3304041624069214, 0.41537749767303467, 0.09917889535427094, 0.3055022358894348, -0.08765505254268646, -0.27919110655784607, -0.05890175327658653, -0.864167332649231, 0.15674343705177307], [-0.9674839973449707, -0.04218509420752525, -0.32901614904403687, -0.021791871637105942, -0.05352412536740303, -0.23345354199409485, 0.14613117277622223, 0.17074015736579895, -0.022123081609606743, 0.28633755445480347, 0.028655413538217545, 0.6636626720428467, 0.06833893060684204, 0.05808139964938164, -0.07719812542200089, -0.21010711789131165, -0.3901961147785187, 0.28775158524513245, -0.13920484483242035, 0.03735456243157387], [0.6765604019165039, -0.14978930354118347, -0.7628535628318787, -0.04439098387956619, -0.17905490100383759, 0.12079522013664246, 0.27343088388442993, -0.08709080517292023, -0.35831770300865173, -0.0027472747024148703, -0.3274771571159363, -0.014867081306874752, 0.01213792897760868, -0.4046664834022522, -0.0975593850016594, -0.0770384818315506, -0.09546979516744614, 0.10012771934270859, 0.9610057473182678, -0.24068379402160645], [0.19297750294208527, 0.14162801206111908, 0.2714225649833679, -0.08440542966127396, -0.06199705973267555, -0.4041874408721924, -0.040850650519132614, 0.49494504928588867, 0.5953283905982971, -0.11317311227321625, 0.005649135448038578, -0.3136320114135742, 0.2985735833644867, -0.15926402807235718, 0.3766651153564453, -0.3346426784992218, 0.4504382610321045, -0.13210314512252808, 0.4691697955131531, -0.15205682814121246], [0.2088528573513031, 0.0006110770045779645, 0.76295006275177, 0.17076510190963745, -0.19731715321540833, -0.018734589219093323, 0.18644049763679504, 0.12057476490736008, -0.20493333041667938, -0.08288508653640747, 0.15901830792427063, 0.4302719831466675, -0.13635940849781036, -0.08730493485927582, 0.39302903413772583, 0.6265366077423096, -0.7532322406768799, 0.008700648322701454, -0.06038138270378113, 0.4083831012248993], [-0.5756281614303589, 0.03451861813664436, -0.8327928185462952, -0.01778276450932026, 0.3192201852798462, 0.028436973690986633, 0.5420571565628052, -0.3314514756202698, -0.10006765276193619, -0.42096981406211853, -0.11490248143672943, 0.1736517697572708, -0.1698203682899475, 0.4921269118785858, 0.7552241086959839, -0.17028522491455078, 0.0027827362064272165, 0.00022636882204096764, 0.11730443686246872, -0.23292170464992523], [-0.5223810076713562, -0.07087396085262299, -1.0565327405929565, 0.049982741475105286, -0.19009652733802795, -0.3196295499801636, 0.23198431730270386, 0.056185655295848846, -0.391513466835022, 0.8928232192993164, 0.2439763844013214, -0.12588758766651154, 0.07229682058095932, -0.020944973453879356, -0.014294520020484924, 0.10958971083164215, -0.17010603845119476, -0.48313114047050476, 0.033088669180870056, -0.12434755265712738], [-0.1306512951850891, -0.12568657100200653, 0.6117329597473145, -0.3173549175262451, -0.28561756014823914, 0.028178220614790916, 0.12916085124015808, 0.7233655452728271, 0.1432427614927292, -0.3908924162387848, -0.2773282527923584, -0.12248460948467255, -0.4304221272468567, -0.2225073128938675, 0.13067121803760529, 0.0271501075476408, -0.03329579904675484, -0.41170504689216614, 0.604405403137207, 0.5499763488769531], [-0.799285352230072, -0.1750476211309433, 0.03337281942367554, 0.18443486094474792, -0.05319271609187126, -0.28341424465179443, -0.3890972137451172, -0.17167648673057556, -0.008584387600421906, 0.24480076134204865, 0.8102195262908936, 0.2675701677799225, 0.2245131880044937, -0.45778170228004456, 0.23995813727378845, 0.22899053990840912, -0.014555074274539948, -0.3584445118904114, -0.3016851246356964, 0.34082886576652527], [-0.16248741745948792, 0.021960929036140442, 1.0862895250320435, 0.011435668915510178, 0.24608726799488068, -0.43175411224365234, -0.24228700995445251, 0.08059484511613846, 0.13487355411052704, 0.33107805252075195, -0.26923006772994995, 0.6262571811676025, 0.11238440871238708, -0.2699406147003174, 0.16761694848537445, 0.1411810964345932, 0.007837002165615559, -0.2571899890899658, -0.07065514475107193, -0.1577388048171997], [-0.4229583442211151, -0.01043751835823059, -0.14887197315692902, 0.24059320986270905, -0.06005813553929329, -0.3222392499446869, -0.1298113465309143, 0.33375680446624756, 0.5119957327842712, -0.40963757038116455, -0.5650723576545715, -0.26764652132987976, 0.24968354403972626, 0.12714515626430511, -0.2127738893032074, 0.4902440011501312, -0.2745644450187683, -0.46665099263191223, 0.02566736564040184, -0.11587594449520111], [0.2749824523925781, 0.06478407233953476, -1.1514558792114258, 0.008149553090333939, -0.03558596596121788, 0.24161623418331146, -0.3642627000808716, -0.08064792305231094, 0.26959455013275146, 0.13797308504581451, -0.12469377368688583, -0.30154547095298767, -0.325771301984787, -0.47765088081359863, -0.3200282156467438, 0.14462412893772125, -0.09531993418931961, 0.21432988345623016, 0.511807918548584, -0.11457754671573639], [-0.4773639738559723, -0.48921293020248413, 0.0955101028084755, -0.29740989208221436, -0.05553929880261421, -0.6138690114021301, 0.20937936007976532, 0.02953752502799034, 0.32462459802627563, 0.27286022901535034, -0.2920779585838318, 0.353040874004364, -0.028207747265696526, 0.2631136178970337, -0.26907265186309814, 0.17360907793045044, -0.3398713171482086, 0.0911468118429184, -0.26750800013542175, 0.37296491861343384], [-0.17540065944194794, 0.004550952464342117, -0.07458105683326721, 0.24041227996349335, 0.024780750274658203, 0.9090174436569214, -0.08353292942047119, 0.16693662106990814, -0.4162117838859558, -0.32722631096839905, -0.4849819839000702, 0.3476582467556, -0.31534141302108765, 0.0631747841835022, 0.1280224323272705, -0.5009822845458984, -0.09170762449502945, -0.34727659821510315, -0.03522510081529617, -0.10386341065168381], [-0.39042210578918457, 0.281208336353302, -0.19452960789203644, -0.27693885564804077, 0.27415305376052856, 0.2541816532611847, -0.3523336350917816, 0.1019967570900917, -0.7030448317527771, 0.3373793959617615, 0.26630181074142456, 0.22168031334877014, 0.005578161217272282, -0.21172279119491577, -0.6155657172203064, -0.03354097157716751, 0.3061196208000183, -0.22663632035255432, -0.24040573835372925, 0.23235675692558289], [-0.4107741713523865, 0.1377769559621811, -0.08023504912853241, -0.06313955783843994, -0.10337807983160019, -0.15151946246623993, 0.3631182909011841, -0.035176604986190796, 0.1049853190779686, -0.0962197482585907, -0.4126893877983093, -0.052885957062244415, 0.19517618417739868, 0.7767177224159241, -0.03340302035212517, 0.3459279537200928, -0.31218793988227844, -0.18806029856204987, -0.7631677985191345, 0.22812345623970032], [-0.2060120403766632, -0.2021602839231491, 0.6141465902328491, 0.05834844335913658, 0.16928859055042267, -0.6827211380004883, 0.14349617063999176, 0.0869457945227623, 0.3721356987953186, 0.003352857194840908, -0.027817483991384506, -0.27338719367980957, -0.22063051164150238, -0.22179703414440155, 0.051731906831264496, 0.33528316020965576, 0.6821643710136414, -0.281443327665329, -0.0806708112359047, 0.2271263599395752], [-0.28967708349227905, -0.14238102734088898, -0.5417420864105225, 0.058343689888715744, -0.1391613930463791, 0.07355020195245743, -0.017694922164082527, 0.17994900047779083, -0.4523513615131378, -0.15719135105609894, 0.29219844937324524, 0.6503843665122986, -0.453585684299469, 0.28909412026405334, 0.1565619707107544, 0.05442047119140625, 0.050153352320194244, 0.17974279820919037, -0.2140367031097412, 0.2558353841304779], [-0.16450294852256775, 0.1454329788684845, -0.3799656629562378, -0.03434569761157036, 0.07332536578178406, -0.28099966049194336, -0.16447032988071442, -0.3336353600025177, 0.8914664387702942, 0.5740861296653748, -0.12973514199256897, 0.3994804322719574, -0.096099853515625, -0.06442506611347198, -0.15419350564479828, -0.09850111603736877, -0.35981303453445435, -0.3248694837093353, -0.3121994137763977, 0.12860415875911713], [-0.7268158793449402, -0.1849774867296219, -0.37275147438049316, -0.1539991796016693, 0.35471850633621216, -0.23538653552532196, 0.018459495157003403, 0.18865178525447845, 0.04426531866192818, -0.2761605381965637, 0.0304443147033453, 0.5471211075782776, 0.379683256149292, -0.054285794496536255, 0.11987906694412231, 0.2953167259693146, -0.602406919002533, 0.23369616270065308, -0.047953199595212936, 0.06990734487771988], [-0.43009325861930847, -0.1198972687125206, 0.4989471435546875, -0.08397207409143448, -0.0702284723520279, 0.6667092442512512, 0.42700937390327454, -0.32012128829956055, 0.008153983391821384, -0.01347385160624981, -0.10222181677818298, 0.13335850834846497, -0.3171582818031311, 0.25596630573272705, 0.9467478394508362, 0.21076448261737823, -0.15929058194160461, 0.22191154956817627, 0.3875969648361206, 0.1836916208267212], [0.4038158357143402, -0.41329360008239746, 0.5242851972579956, 0.36251991987228394, 0.4916323125362396, 0.06712622195482254, 0.17648623883724213, 0.3682153820991516, -0.07155907154083252, -0.23061060905456543, 0.07352569699287415, -0.19341453909873962, -0.5391587018966675, -0.017987005412578583, -0.17771148681640625, -0.1727500706911087, -0.2059829831123352, -0.0045913574285805225, 0.1059839203953743, 0.13973675668239594], [0.6709613800048828, -0.20181168615818024, 0.05620642751455307, 0.04318063706159592, 0.013418015092611313, 0.035967033356428146, -0.1583777666091919, -0.4704153537750244, 0.04531443491578102, 0.2213672697544098, 0.41868656873703003, -0.028489096090197563, 0.30025047063827515, 0.023901183158159256, 0.18851502239704132, 0.3032780587673187, 0.8384958505630493, 0.12693312764167786, 0.16817204654216766, 0.03138940781354904], [-0.2528407573699951, 0.14014597237110138, 0.37354204058647156, 0.029260290786623955, -0.03806702047586441, 0.09105882048606873, -0.33593523502349854, -0.018312830477952957, -0.5363768935203552, 0.5592266321182251, -0.28880029916763306, 0.4990350604057312, -0.04987569898366928, 0.7411734461784363, -0.17245924472808838, 0.5524711608886719, 0.23385047912597656, -0.24934938549995422, -0.02683916874229908, 0.798492968082428], [-0.004547227639704943, -0.13833899796009064, -0.06568779051303864, 0.2537453770637512, -0.27211907505989075, 0.0828685387969017, -0.4719461500644684, 0.21666941046714783, 0.5495291948318481, 0.258859246969223, -0.2105725258588791, 0.3275231420993805, 0.3175162672996521, 0.3212081491947174, -0.036651112139225006, 0.004030843731015921, -0.48670652508735657, -0.07823079079389572, -0.70467609167099, -0.5035542845726013], [-0.5520943999290466, -0.38143759965896606, 0.09052248299121857, -0.15525807440280914, 0.003613733220845461, 0.05163915082812309, 0.121839739382267, 0.34986162185668945, 0.07586878538131714, -0.29957422614097595, 0.3115133047103882, 0.5178472995758057, 0.023873206228017807, 0.7653388381004333, 0.38400885462760925, 0.7115718722343445, -0.3250189423561096, 0.19966016709804535, -0.2535600960254669, -0.12879034876823425], [-0.678760290145874, 0.1694067418575287, 0.5608262419700623, -0.062471065670251846, 0.3392530083656311, 0.0419645756483078, 0.36207839846611023, -0.06074810400605202, -0.06640779972076416, 0.5940077304840088, -0.15838709473609924, -0.5484821200370789, 0.1156042143702507, 0.23873819410800934, 0.09611228108406067, -0.019306756556034088, -0.32189422845840454, -0.0671052485704422, 0.20222008228302002, -0.4319273829460144], [-0.17284631729125977, -0.12253084033727646, 0.08015646040439606, 0.04827536270022392, -0.0059600877575576305, -0.20469573140144348, -0.0013752201339229941, -0.030730165541172028, 0.2740853428840637, 0.3410283625125885, -0.2892199158668518, 0.10375635325908661, -0.0412677526473999, -0.7445564866065979, -0.47812116146087646, -0.8305448889732361, 0.002799393143504858, 0.13614438474178314, 0.5278151035308838, 0.656292200088501], [-0.27081674337387085, 0.2579428553581238, 0.06875503063201904, 0.010196336545050144, 0.18331407010555267, 0.15590013563632965, 0.3003741502761841, 0.283937007188797, -0.28899845480918884, -0.5646184682846069, -0.24429063498973846, 0.008173968642950058, -0.3508739173412323, 0.08750453591346741, -0.23898786306381226, -0.4313000440597534, -0.5360680818557739, 0.20294637978076935, 0.06186654046177864, -0.20433399081230164], [-0.5083994269371033, -0.5657297968864441, 0.28957080841064453, 0.024959901347756386, 0.17130476236343384, -0.06306722015142441, -0.16785073280334473, 0.07132688909769058, 0.2870326340198517, -0.27252334356307983, -0.23590636253356934, -0.20346853137016296, 0.4301797151565552, 0.38001585006713867, 0.22924672067165375, 0.7067726850509644, 0.3153182566165924, -0.09351920336484909, 0.46120306849479675, 0.1469346135854721], [-0.47187039256095886, 0.12279245257377625, 0.1452055275440216, -0.06922228634357452, 0.24802660942077637, -0.6458631157875061, 0.004063281696289778, -0.1908411830663681, -0.15399903059005737, 0.23053871095180511, 0.5673892498016357, 0.08536592125892639, -0.1714678257703781, 0.5637657642364502, -0.18162325024604797, 0.38242778182029724, -0.3142382502555847, -0.6495077013969421, -0.14980590343475342, 0.04822489246726036], [0.41121622920036316, -0.2045188993215561, 0.06591211259365082, -0.08555205166339874, -0.2764817774295807, -0.39365169405937195, 0.015536149963736534, 0.318473219871521, 0.0030512891244143248, 0.5047816038131714, 0.16824713349342346, -0.22184595465660095, -0.27589529752731323, -0.5532646775245667, -0.9081138372421265, -0.3694453835487366, -0.2792755961418152, 0.30010905861854553, -0.024332605302333832, -0.25980737805366516], [-0.2067006677389145, -0.01771901547908783, -0.00023751759727019817, -0.3308143615722656, 0.12041804194450378, -0.26272356510162354, -0.16885201632976532, -0.1552591323852539, 0.32385575771331787, 0.2486150562763214, 0.10665595531463623, 0.29473862051963806, -0.4934921860694885, 0.9032536745071411, 0.09643162041902542, 0.8421391844749451, -0.257537841796875, -0.09680312126874924, -0.21338966488838196, -0.34539881348609924], [0.544223427772522, 0.04515770450234413, -0.6530097126960754, 0.04974975064396858, 0.057377468794584274, 0.41636577248573303, -0.3159693777561188, 0.8124985098838806, 0.07973732054233551, 0.17391625046730042, -0.4893045127391815, -0.01764693669974804, -0.11838748306035995, -0.4478268027305603, 0.15982045233249664, -0.38943785429000854, 0.526511549949646, 0.3559104800224304, -0.2945604622364044, 0.17360788583755493], [0.9017831087112427, -0.4346231520175934, 0.18497490882873535, -0.4087361991405487, -0.014355179853737354, -0.09464041143655777, 0.2946321964263916, -0.106503427028656, 0.15114809572696686, 0.08818099647760391, 0.40380626916885376, -0.08420351147651672, -0.3759416937828064, -0.19949333369731903, 0.15608152747154236, -0.511103093624115, -0.19113250076770782, -0.1946221888065338, 0.16097675263881683, -0.06882505118846893], [-0.1033509150147438, -0.10709547251462936, -0.44514498114585876, -0.02812950871884823, 0.05886000022292137, 0.5074045062065125, 0.15562081336975098, 0.09196464717388153, 0.2746955156326294, 0.08753835409879684, -0.12456439435482025, 0.24437831342220306, -0.31592804193496704, -0.925201416015625, -0.7083147168159485, -0.5294528007507324, -0.17170993983745575, -0.3618508279323578, -0.2403780072927475, 0.1410568654537201], [0.6440466642379761, -0.343886137008667, 1.2520521879196167, 0.038439296185970306, 0.06014345586299896, 0.07249630242586136, 0.4447217583656311, 0.25445517897605896, 0.1643664389848709, 0.11110017448663712, 0.3003042936325073, -0.022307245060801506, 0.15778440237045288, -0.22909988462924957, -0.4953387379646301, -0.4276873469352722, -0.08736779540777206, -0.40738072991371155, -0.26028144359588623, -0.1368679255247116], [-0.20286905765533447, -0.02251487970352173, -0.08803882449865341, 0.028225071728229523, 0.10147488862276077, -0.11738628149032593, -0.4340309500694275, -0.05752678960561752, -0.3700585961341858, 0.6057316660881042, 0.26191240549087524, -0.09932831674814224, 0.515058696269989, 0.6132158041000366, 0.870152473449707, 1.018309235572815, -0.24658465385437012, -0.19482995569705963, -0.15290182828903198, -0.07026368379592896], [-0.19417986273765564, -0.2713525593280792, -0.7293490767478943, 0.03614087402820587, -0.20010794699192047, 0.15143123269081116, -0.23475424945354462, -0.1084122583270073, -0.3735090494155884, 0.10812222957611084, 0.21530230343341827, 0.6394206881523132, -0.34230777621269226, -0.3442345857620239, -0.5431193113327026, -0.21868357062339783, 0.11228779703378677, -0.20834575593471527, 0.3712189495563507, -0.06773117184638977], [-0.5186979174613953, -0.10316070914268494, 0.1030668392777443, 0.1847943663597107, -0.011608252301812172, -0.5473933219909668, 0.284901887178421, -0.47419679164886475, 0.4520474374294281, 0.17127254605293274, 0.41621866822242737, -0.249254509806633, -0.08097564429044724, 0.2675304114818573, 0.170626699924469, 0.4982193112373352, -0.30500102043151855, -0.212869331240654, -0.38932526111602783, 0.008547600358724594], [-0.6760360598564148, 0.12033194303512573, 0.01422305591404438, -0.2839738130569458, 0.2662618160247803, 0.3110032081604004, 0.020380370318889618, 0.590179443359375, 0.08917621523141861, -0.29946428537368774, -0.3028102517127991, -0.19998325407505035, -0.3119927942752838, 0.05553451552987099, 0.1845272183418274, -0.10562664270401001, -0.6532343626022339, -0.050624001771211624, 0.7405126690864563, -0.0480349026620388], [0.434367835521698, 0.06979573518037796, 0.55916428565979, 0.13762377202510834, 0.18669064342975616, -0.23415936529636383, 0.08235898613929749, 0.019782157614827156, 0.04641338065266609, 0.6538950800895691, 0.20730219781398773, -0.010855487547814846, 0.02598278596997261, 0.015905462205410004, -0.3112662136554718, 0.021887371316552162, 0.030687568709254265, 0.12549817562103271, 0.6191862225532532, 0.31086161732673645], [-0.7110885381698608, -0.2010956108570099, 0.09979919344186783, 0.15585578978061676, 0.14037694036960602, -0.009900109842419624, -0.13239414989948273, 0.18114912509918213, 0.3652673065662384, 0.059817664325237274, 0.10656857490539551, -0.19300173223018646, -0.10209435969591141, 0.379843145608902, -0.18309445679187775, 0.5698018670082092, 0.29475137591362, -0.37095680832862854, 0.17191047966480255, -0.7867744565010071], [0.39096105098724365, -0.17894764244556427, -0.37973302602767944, -0.03682516887784004, 0.021006237715482712, 0.5788305401802063, -0.18814492225646973, 0.24201373755931854, -0.7823954224586487, 0.2324817031621933, 0.014004692435264587, 0.39487913250923157, -0.027315402403473854, 0.005136232357472181, -0.1306513100862503, -0.32177484035491943, -0.5097089409828186, 0.14732089638710022, 0.5909794569015503, -0.4528864324092865], [0.23510362207889557, 0.0189957357943058, -0.6234007477760315, 0.404008686542511, 0.04356055706739426, 0.43096449971199036, 0.4376368820667267, -0.051087524741888046, -0.6151518225669861, 0.3855137526988983, -0.2195643186569214, -0.1614331156015396, -0.16756217181682587, -0.6425325870513916, -0.2536543011665344, -0.4960942268371582, -0.14763350784778595, -0.05861053615808487, 0.33236607909202576, 0.05150594189763069], [-0.10583510994911194, -0.16829004883766174, -0.5679181218147278, -0.103378526866436, -0.1708848625421524, 0.27715274691581726, -0.1615440547466278, -0.000996731105260551, -0.35990336537361145, 0.3968316614627838, -0.02687312848865986, -0.2079315483570099, 0.08879845589399338, -0.3893226683139801, -0.32244014739990234, -0.4762219190597534, 0.5901504158973694, -0.10361666232347488, 0.3201802372932434, 0.9857897758483887], [-0.21342405676841736, 0.06567426770925522, -0.4323168694972992, -0.11387793719768524, 0.008792641572654247, 0.25010812282562256, 0.20857954025268555, 0.27852752804756165, 0.28564298152923584, 0.06319429725408554, 0.19917473196983337, 0.4864620566368103, -0.15055395662784576, -0.0784265324473381, -0.5695890188217163, -0.18130990862846375, 0.591300904750824, 0.6867232322692871, -0.3027988374233246, -0.05084184557199478], [0.09116920828819275, 0.122652567923069, 0.26247936487197876, 0.1961294263601303, -0.15366174280643463, 0.1536543369293213, 0.5562523007392883, -0.1849517524242401, -0.15458370745182037, -0.1966259479522705, -0.7046282887458801, 0.08089235424995422, 0.5718850493431091, 0.5607380270957947, 0.5545273423194885, 0.23597578704357147, -0.21532469987869263, -0.070440374314785, -0.24106864631175995, -0.6799829006195068], [0.09681745618581772, -0.0539143942296505, -0.5970365405082703, 0.018262770026922226, 0.2606119215488434, 0.13191846013069153, -0.35170677304267883, 0.08044221252202988, -0.5917907357215881, -0.010846000164747238, -0.28615623712539673, 0.11122792214155197, -0.41278451681137085, 0.16552898287773132, 0.19286945462226868, 0.21813426911830902, 0.6279425024986267, 0.4414423406124115, 0.3038221001625061, 0.5029101371765137], [0.04957744479179382, -0.16973626613616943, -0.44665059447288513, 0.09100755304098129, -0.26253512501716614, -0.5881667733192444, 0.34930092096328735, 0.5242017507553101, 0.10834363847970963, -0.23142527043819427, -0.1989739090204239, 0.21377778053283691, -0.039141587913036346, 0.35983806848526, -0.25254955887794495, -0.37777429819107056, 0.18480631709098816, 0.23763832449913025, 0.7560530304908752, -0.34172323346138], [-0.13833457231521606, 0.5596906542778015, -0.057268206030130386, 0.06408292055130005, -0.26174119114875793, 0.266823410987854, 0.012538956478238106, 0.28562742471694946, 0.4450399577617645, 0.2535068988800049, -0.15845678746700287, 0.47786417603492737, 0.3040772080421448, 0.39929354190826416, -0.009005245752632618, 0.3525382876396179, 0.21998478472232819, -0.41830873489379883, 0.4526911675930023, 0.14076614379882812]], "b": [-0.10754939913749695, -0.053311754018068314, -0.0660792663693428, 0.03308817744255066, 0.06191548332571983, 0.022313622757792473, -0.14533182978630066, -0.001869597239419818, 0.13294434547424316, 0.04841804876923561, -0.11783663928508759, 0.1549896001815796, 0.006652959622442722, 0.11933586001396179, -0.0653991773724556, -0.12025022506713867, 0.036718372255563736, 0.047574419528245926, -0.05739632621407509, 0.08547644317150116, 0.035026513040065765, -0.059575922787189484, -0.1619109809398651, -0.12901614606380463, -0.12453411519527435, -0.09867872297763824, -0.007650683168321848, 0.12510888278484344, -0.12096339464187622, -0.09524894505739212, -0.0817738026380539, -0.19671839475631714, -0.03776837885379791, 0.03877231106162071, -0.2087615430355072, -0.08449562638998032, 0.03258068859577179, -0.07436025887727737, -0.18772025406360626, 0.06358762830495834, -0.08184360712766647, 0.07689253985881805, -0.14288535714149475, -0.02294621616601944, -0.02015717886388302, -0.08998633176088333, 0.02644074521958828, -0.0999290943145752, 0.030213387683033943, 0.05743465945124626, 0.023531043902039528, -0.1331426054239273, 0.0479230061173439, -0.0012962553882971406, 0.06583143025636673, -0.043404873460531235, -0.03610214218497276, -0.016193130984902382, -0.10510311275720596, 0.14873357117176056, -0.02907625585794449, -0.06436246633529663, -0.001113156322389841, 0.20159026980400085]}, {"w": [[0.24527442455291748, -0.3038094937801361, -0.30091893672943115, -0.0020777289755642414, -0.5519068837165833, -0.12427489459514618, -0.20154936611652374, -0.040499914437532425, -0.28377941250801086, 0.0576249398291111, -0.29354530572891235, -0.11647441238164902, 0.21545454859733582, -0.4866185188293457, -0.16341708600521088, 0.025327805429697037, -0.10119004547595978, 0.09482932835817337, -0.6197442412376404, 0.6076593399047852, 0.6101502180099487, 0.1953652948141098, -0.35490456223487854, -0.3289829194545746, 0.10703976452350616, -0.2865142822265625, 0.3677530288696289, 0.717227578163147, -0.31422317028045654, 0.12987257540225983, 0.6042734980583191, -0.27829912304878235, 0.004588321316987276, 0.13188309967517853, 0.27007564902305603, 0.12698574364185333, -0.11857163906097412, -0.46235525608062744, -0.4457102119922638, 0.20896734297275543, 0.2303459346294403, 0.030330121517181396, -0.32883360981941223, 0.5996758341789246, 0.524560272693634, -0.39756181836128235, 0.5192687511444092, -0.19043447077274323, 0.5292832851409912, -0.02104363590478897, 0.15447206795215607, 0.3038540780544281, -0.2648282051086426, 0.061870086938142776, 0.02422620914876461, -0.25593891739845276, -0.08604507148265839, 0.47955164313316345, 0.7972040772438049, 0.13788515329360962, -1.0902764797210693, 0.08740396052598953, -0.4822826683521271, -0.16547761857509613], [0.6175382137298584, -0.12838412821292877, 0.20809215307235718, 0.6310517191886902, 0.6158034205436707, 0.1043689101934433, -0.17385077476501465, 0.09473462402820587, -0.3832716643810272, 0.42506831884384155, -0.4364463984966278, 0.24873504042625427, 0.1960728019475937, 0.31001394987106323, 0.3911680281162262, 0.06460673362016678, 0.21528179943561554, -0.21155934035778046, -0.014466007240116596, 0.24622376263141632, 0.15354615449905396, 0.15507951378822327, 0.1764347404241562, 0.37269073724746704, -0.2566930949687958, 0.32601648569107056, -0.3764343857765198, -0.455300897359848, 0.2301046997308731, 0.3744068145751953, -0.5249167680740356, 0.39972665905952454, 0.06862016022205353, -0.07436720281839371, 0.025089437142014503, 0.03620536997914314, -0.10152136534452438, -0.1045818105340004, -0.31520506739616394, 0.5248880386352539, 0.3196023106575012, 0.011412281543016434, 0.2511131465435028, 0.5138223171234131, -0.35797592997550964, 0.07008976489305496, -0.58647620677948, -0.46561911702156067, 0.12954944372177124, 0.45309606194496155, -0.04465579241514206, -0.4669558107852936, 0.6503611207008362, -0.18102926015853882, 0.6424922943115234, 0.059196654707193375, -0.8510692715644836, -0.17241863906383514, -0.2735145390033722, -0.016268782317638397, 0.007876137271523476, -0.40398404002189636, 0.03225678950548172, 0.5423089265823364], [0.060864344239234924, -0.34528031945228577, -0.12798656523227692, -0.059446487575769424, -0.7362097501754761, -0.511394202709198, -0.07887573540210724, 0.44903475046157837, -0.27565914392471313, 0.30411866307258606, 0.03964396193623543, -0.47335556149482727, 0.09197936207056046, 0.2473580688238144, 0.4506067931652069, 0.2881898880004883, -0.08769054710865021, 0.15666437149047852, -0.5822507739067078, -0.2809566855430603, -0.10911335051059723, 0.5453563332557678, 0.21933773159980774, -0.42724934220314026, 0.40337440371513367, 0.5189223885536194, -0.15763193368911743, 0.5421364307403564, -0.33033525943756104, 0.055313654243946075, 0.4131315350532532, 0.14963659644126892, 0.5226401090621948, 0.2787257134914398, 0.5104525089263916, -0.00018060147704090923, 0.03856443986296654, -0.06127512827515602, -0.1796337068080902, -0.0005010294844396412, 0.9468913674354553, 0.06864096224308014, 0.2534960210323334, 0.2574281692504883, -0.10916005074977875, -0.3126584589481354, -0.12327928841114044, -0.00584619864821434, 0.35927751660346985, -0.08346804976463318, -0.049734532833099365, 0.6390716433525085, 0.034392617642879486, 0.1643163412809372, 0.3559717833995819, -0.44627583026885986, 0.34623226523399353, -0.08854824304580688, 0.7442771792411804, 0.01980135403573513, -0.9909666180610657, 0.36020198464393616, -0.3781592845916748, 0.08489222079515457], [0.03584366291761398, -0.3710840344429016, -0.6317510008811951, -0.23294787108898163, 0.18825164437294006, 0.8131985664367676, 0.16257835924625397, 0.19739992916584015, 0.5586973428726196, 0.13631676137447357, -0.26175814867019653, -0.31034958362579346, 0.5955049991607666, 0.21905562281608582, 0.3723675310611725, -0.42531847953796387, -0.16216714680194855, -0.11687306314706802, 0.329126238822937, 0.3131256401538849, -0.21915626525878906, -0.103326715528965, -0.24547727406024933, 0.34069302678108215, 0.13434040546417236, 0.24427632987499237, 0.1245746910572052, -0.034234508872032166, 0.5752217173576355, 0.2964414358139038, -0.18087375164031982, 0.39956051111221313, 0.5266464948654175, 0.10312767326831818, 0.15301015973091125, -0.7515422105789185, -0.44737571477890015, 0.05502369999885559, 0.390676885843277, 0.10952643305063248, -0.44403451681137085, 0.05100761353969574, 0.06385437399148941, 0.0659870058298111, -0.031682904809713364, 0.1946680247783661, 0.11057999730110168, -0.058412712067365646, 0.4349541664123535, -0.29081425070762634, -0.24857984483242035, -0.6177337169647217, 0.28351813554763794, 0.490484356880188, -0.5590806603431702, 0.14761561155319214, -1.0199933052062988, -0.5491606593132019, -0.2763446569442749, -0.2763569951057434, -0.02595752663910389, -0.12717078626155853, 0.027925102040171623, 0.3404751420021057], [0.21928192675113678, 0.12434447556734085, 0.35762858390808105, -0.6674649119377136, -0.23524844646453857, -0.40496647357940674, -0.0190376378595829, -0.6675795912742615, -0.39009347558021545, -0.5741266012191772, -0.5203475952148438, 0.0071379151195287704, -0.2225809395313263, -0.6253203749656677, -0.5482892394065857, 0.7651546001434326, 0.03030877560377121, 0.19197145104408264, -0.12552474439144135, 0.20220419764518738, -0.45749732851982117, -0.282646507024765, -0.38225820660591125, -0.1352308839559555, 0.17402707040309906, -0.12926386296749115, 0.025550659745931625, 0.06472103297710419, -0.46736380457878113, -0.2876127064228058, -0.4384458065032959, 0.41069766879081726, -0.5479282736778259, -0.19377289712429047, 0.034370556473731995, 0.2923142611980438, -0.040902938693761826, -0.4343023896217346, -0.8312395215034485, 0.09913160651922226, 0.17512527108192444, -0.27384060621261597, -0.5913568139076233, -0.45652398467063904, 0.09203037619590759, 0.15674492716789246, -0.16356536746025085, 0.3297179341316223, 0.040762729942798615, -0.14014281332492828, -0.07699842005968094, 0.3787849247455597, -0.034983132034540176, -0.2857339084148407, 0.3848704993724823, -0.11306670308113098, 0.1338568478822708, 0.3515283763408661, 0.7090805768966675, 0.2719391882419586, -0.19733430445194244, 0.21139132976531982, 0.09325538575649261, -0.20333972573280334], [-0.5260263681411743, 0.38461121916770935, 0.5650117993354797, -0.04114657640457153, 0.41477736830711365, -0.21933993697166443, 0.026082970201969147, 0.14374077320098877, -0.6411886811256409, 0.11475171893835068, 0.4486117362976074, 0.49068090319633484, -0.3169400691986084, 0.3885469436645508, -0.13660086691379547, 0.0883512943983078, 0.451638787984848, 0.23247511684894562, -0.024712352082133293, -0.2423885315656662, -0.05552319064736366, 0.3230515420436859, 0.20237787067890167, -0.18640263378620148, -0.10406175255775452, -0.20281313359737396, 0.22284841537475586, -0.15570853650569916, -0.5319150686264038, -0.712150514125824, 0.2983166575431824, -0.1450977325439453, 0.584669828414917, 0.21343950927257538, 0.12834018468856812, 0.521023154258728, -0.29227128624916077, 0.06964391469955444, 0.43891820311546326, -0.6698460578918457, 0.09596922248601913, -0.5684489607810974, -0.25403785705566406, 0.00011237012222409248, -0.11921175569295883, 0.15592674911022186, 0.314095675945282, 0.1380271315574646, -0.6231700778007507, 0.11874737590551376, 0.3042016327381134, -0.5795446038246155, -0.34458693861961365, -0.05668364837765694, 0.15012381970882416, -0.347721129655838, 0.10260499268770218, -0.3039429187774658, -0.3864862322807312, 0.3812216818332672, 0.581487238407135, -0.09810161590576172, 0.08366808295249939, 0.5031154155731201], [0.07012055814266205, -0.5606400370597839, -0.18462863564491272, -0.1731104850769043, -0.1323319673538208, 0.1799910068511963, 0.3728407025337219, 0.38220447301864624, 0.7488946914672852, -0.0923541858792305, 0.29391828179359436, 0.20504102110862732, 0.780169665813446, -0.0183393694460392, 0.3175046741962433, -0.08281032741069794, 0.007362206466495991, 0.26566487550735474, 0.14709770679473877, 1.1336697340011597, 0.012797991745173931, 0.122765451669693, -0.046222057193517685, 0.0926760882139206, -0.08345594257116318, 0.7634073495864868, -0.2691884934902191, 0.16906346380710602, 0.4141601026058197, -0.10089205950498581, 0.3577815294265747, 0.8741567134857178, 0.12452353537082672, -0.4818100929260254, -0.049699969589710236, -0.3303731083869934, 0.05096437409520149, 0.5414578914642334, 0.2402738630771637, 0.31861862540245056, -0.03949560225009918, 0.2232787311077118, -0.3888770341873169, 0.806221604347229, 0.6077176928520203, 0.42951709032058716, -0.4074081778526306, 0.04814174026250839, 0.1407255381345749, -0.302268385887146, 0.14485809206962585, 0.263978511095047, 1.065772294998169, 0.1173430010676384, 0.15920357406139374, 0.366356760263443, 0.12302261590957642, 0.056733157485723495, -0.03798360377550125, 0.21262617409229279, -0.2321753352880478, -0.31544843316078186, 0.025522129610180855, 0.15776289999485016], [0.416622132062912, 0.04798944294452667, 0.2431071251630783, -0.2504284679889679, -0.39609161019325256, -0.07692375779151917, 0.39743971824645996, 0.4463169276714325, 0.18917204439640045, -1.0939606428146362, -0.08412850648164749, -0.042171724140644073, -0.07983321696519852, 0.20127245783805847, -0.569033682346344, 0.18847890198230743, 0.7048509120941162, 0.03319365158677101, -0.3219744563102722, -0.08926214277744293, 0.4488711953163147, 0.08721303194761276, -0.08246476203203201, 0.1608642190694809, 0.22794803977012634, -0.1048727035522461, -0.351765513420105, -0.8021581768989563, 0.11042682081460953, 0.6944757699966431, -0.9797862768173218, 0.270907998085022, -0.5441769957542419, -0.2254796326160431, -0.07256285846233368, -0.06335050612688065, -0.1613389402627945, -0.00820324756205082, -0.6646326780319214, 0.7138815522193909, 0.0717914029955864, 0.1382749229669571, 0.24288979172706604, -0.2465801239013672, 0.31302839517593384, -0.1684451699256897, 0.10315050929784775, 0.606666624546051, -0.08554688096046448, 0.1691061109304428, 0.24074368178844452, -0.6928585171699524, 0.3832899332046509, 0.33625486493110657, 0.10527264326810837, -0.15422236919403076, -1.0430246591567993, 0.0333600714802742, -0.01735718548297882, -0.1268192082643509, 0.10672593116760254, -0.5005451440811157, -0.46028247475624084, -0.15022902190685272], [-0.4024917483329773, -0.5806912183761597, 0.09419556707143784, -0.29972127079963684, 0.6291899681091309, 0.57514888048172, -0.37863999605178833, -0.04519297182559967, -0.2513852119445801, 0.48267653584480286, -0.1856178492307663, 0.016891496255993843, -0.06093475595116615, 0.24901540577411652, 0.821498453617096, -0.6266888380050659, -0.08219034969806671, 0.05898882448673248, 0.29532289505004883, -0.04693310707807541, -0.5081453323364258, 0.2604078948497772, 0.09668997675180435, 0.2014322727918625, -0.084507517516613, 0.2259444296360016, -0.21614143252372742, 0.4622376561164856, 0.2758423984050751, -0.15496200323104858, 0.5759928822517395, 0.0916859433054924, 0.19376292824745178, 0.07570244371891022, -0.5261909365653992, 0.13306443393230438, 0.45822763442993164, -0.03542467579245567, 0.4082397222518921, -0.26814743876457214, 0.04487061873078346, 0.10195400565862656, -0.06592505425214767, 0.21592703461647034, -0.11068009585142136, 0.0756513774394989, -0.4505884051322937, -0.31957343220710754, 0.2521767020225525, -0.6007342338562012, 0.5640273094177246, 0.24952088296413422, 0.07887760549783707, -0.3789606988430023, -0.11287461221218109, 0.1033342033624649, -0.3523513376712799, -0.23988202214241028, -0.475301057100296, 0.5603487491607666, -0.0368802435696125, 0.07497700303792953, -0.3835013508796692, -0.18219445645809174], [0.24767374992370605, -0.1553812026977539, -0.05102035030722618, 0.20354248583316803, 0.1335856169462204, -0.09453178942203522, -0.25833120942115784, -0.07014097273349762, -0.11865144222974777, 0.30079400539398193, -0.23994991183280945, 0.3868483901023865, -0.31079724431037903, 0.08216169476509094, -0.042231470346450806, -0.37198197841644287, 0.16291481256484985, -0.38467836380004883, -0.12875686585903168, 0.3515107035636902, -0.21789830923080444, 0.6900427341461182, -0.0061788298189640045, 0.24757303297519684, 0.06716431677341461, 0.12084391713142395, -0.21922549605369568, 0.25417596101760864, 0.010782135650515556, -0.2826720178127289, -0.27380338311195374, 0.4167892336845398, 0.7788662314414978, 0.20829245448112488, -0.33210402727127075, -0.1547984778881073, 0.2750711143016815, 0.27958568930625916, 0.05271460860967636, 0.35889142751693726, 0.3770238757133484, 0.25681260228157043, 0.28230586647987366, 0.05297605320811272, -0.6497362852096558, -0.14475701749324799, 0.02211880497634411, -0.6372343301773071, 0.2229117602109909, -0.6976162791252136, 0.35980498790740967, -0.0625237375497818, 0.4058973789215088, 0.332720547914505, -0.23848266899585724, 0.29216670989990234, -0.3664127290248871, 0.05427902191877365, 0.06898969411849976, -0.10255501419305801, -0.10778357088565826, -0.41610845923423767, -0.07944724708795547, -0.0059378002770245075], [0.05210501328110695, -0.1370287835597992, 0.03910344839096069, 0.44545647501945496, 0.557974100112915, -0.5900874137878418, -0.6755472421646118, -0.280164510011673, -0.6944485306739807, -0.6563968062400818, -0.23476766049861908, 0.8343947529792786, -0.0855831727385521, 0.525382399559021, -0.3712994456291199, -0.05879003927111626, -0.15595778822898865, -0.21967916190624237, -0.02976224198937416, 0.009336213581264019, -0.719937264919281, 1.0287237167358398, -0.5475980043411255, -0.47189176082611084, -0.022615909576416016, -0.6574272513389587, 0.041790496557950974, 0.09377281367778778, -0.25379422307014465, 0.14485283195972443, 0.1272723525762558, -0.04568716883659363, -0.0016965430695563555, 0.20227591693401337, -0.1275697499513626, 0.6742226481437683, 0.34363818168640137, 0.5379117727279663, -0.17795176804065704, -0.5887051224708557, -0.03895053267478943, -0.729508101940155, 0.3410089313983917, 0.16074100136756897, -0.48885372281074524, 0.24228525161743164, -0.4184204339981079, 0.14523570239543915, 0.0432644821703434, -0.1206221729516983, 0.8734877705574036, 0.4213756024837494, 0.3457816243171692, -0.46077290177345276, -0.013964555226266384, 0.10499975830316544, -0.12839266657829285, -0.45753243565559387, -0.06305576115846634, -0.24137650430202484, -0.19063375890254974, -0.2698681354522705, -0.7009726762771606, -0.5978256464004517], [-0.4069285988807678, -0.13050805032253265, -0.5215012431144714, -0.582949161529541, -0.15235206484794617, -0.11746499687433243, -0.0008434045594185591, 0.0270121768116951, -0.011901685036718845, 0.5124291777610779, -0.2462010383605957, 0.06831689924001694, 0.7967295050621033, -0.7487576007843018, 0.10316608101129532, -0.01995711959898472, -0.2804252803325653, -0.2705555260181427, -0.5338972210884094, 0.3846327066421509, 0.35865262150764465, -0.40341976284980774, -0.48074692487716675, -0.2869492173194885, 0.12254487723112106, -0.31195035576820374, 0.5062192678451538, 0.6650413274765015, -0.15500947833061218, 0.044000688940286636, -0.26802369952201843, -0.11000774800777435, -0.38346990942955017, 0.1780317723751068, 0.18582691252231598, 0.14116118848323822, 0.2629868984222412, -0.1452360600233078, -0.23985609412193298, 0.5970505475997925, 0.2740991413593292, 0.14958103001117706, -0.3447370231151581, -0.3587968945503235, 0.37128689885139465, -0.48908355832099915, 0.7365350723266602, 0.2250189185142517, 0.11645826697349548, 0.3982240855693817, 0.18880358338356018, -0.030757689848542213, -0.45466044545173645, 0.10909640043973923, -0.034874700009822845, 0.4548580050468445, 0.257398784160614, 0.9333535432815552, 0.4570562243461609, 0.8449080586433411, -0.2105288952589035, 0.8332275152206421, 0.06190086156129837, -0.07020504772663116], [-0.32314813137054443, -0.6956307888031006, -0.7543792724609375, 0.17941215634346008, 0.5426129698753357, 0.28186139464378357, -0.22709962725639343, -0.6061124205589294, 0.30897757411003113, 0.551455557346344, -0.6238144040107727, -0.006070747040212154, 0.21518300473690033, -0.031164901331067085, 0.19055818021297455, -0.4356228709220886, -0.23836100101470947, 0.10926239937543869, 0.453361839056015, 0.19960175454616547, 0.030048873275518417, 0.5175868272781372, -0.3297472894191742, -0.5430886745452881, -0.2791932225227356, -0.12323828786611557, 0.14394520223140717, 0.41206303238868713, 0.0943400040268898, 0.055918946862220764, 0.562967836856842, -0.15314680337905884, 0.15963202714920044, 0.17283006012439728, -0.7231334447860718, 0.30361250042915344, 0.3404976725578308, -0.30472108721733093, 0.5758780837059021, 0.4398238956928253, -0.5169194936752319, -0.03407793864607811, 0.25050318241119385, 0.7712849974632263, -0.23707693815231323, 0.2820960581302643, -0.23988847434520721, -0.09892942756414413, 0.04199931398034096, -0.24062463641166687, 0.4767337739467621, 0.1696833074092865, 0.8353846669197083, 0.29743295907974243, -0.2091892957687378, 0.5978361964225769, -0.20977415144443512, -0.0771307423710823, 0.17891491949558258, 0.47221699357032776, 0.09883888065814972, 0.5078312754631042, -0.5671099424362183, 0.2955760955810547], [-0.3729388117790222, -0.2727711498737335, -0.0541793517768383, 0.6823994517326355, -0.39593222737312317, -0.5342448353767395, -0.3536373972892761, 0.13886697590351105, -0.4702579081058502, -0.04995390772819519, 0.09909015893936157, 0.7649952173233032, -0.03753039985895157, 0.10155380517244339, -0.44775837659835815, -0.02596113085746765, -0.3470621407032013, 0.1924716681241989, -0.7347424626350403, -0.04838048666715622, -0.16374967992305756, 0.42418840527534485, 0.04814901202917099, -0.541409969329834, 0.1959664225578308, 0.19010604918003082, -0.17221671342849731, -0.05491964519023895, -0.6924670338630676, 0.40837571024894714, 0.07834196090698242, -0.10448368638753891, -0.5898118019104004, 0.20863981544971466, 0.38233882188796997, 0.3260327875614166, 0.33729031682014465, -0.4604431092739105, 0.11651384085416794, -0.33329614996910095, 0.30050936341285706, -0.40168625116348267, 0.0879930853843689, 0.14583580195903778, 0.2955397069454193, -0.19331549108028412, -0.11077816039323807, 0.21955645084381104, 0.11471879482269287, 0.14211197197437286, 0.2077183723449707, 0.26785093545913696, -0.0024154605343937874, -0.7088060975074768, 0.4857495427131653, -0.14994703233242035, -0.02447744458913803, -0.02675863727927208, 0.4682483673095703, -0.22969761490821838, -1.0160824060440063, 0.7414559721946716, -0.4302264451980591, -0.538098156452179], [0.09742574393749237, 0.40040403604507446, 0.14429593086242676, -0.17375771701335907, -0.09543994814157486, -0.24558140337467194, 0.398075133562088, 0.27949121594429016, -0.0894976258277893, -0.05390911176800728, 0.7246208786964417, -0.20423917472362518, -0.0477629229426384, 0.1808149516582489, 0.015760201960802078, 0.27283498644828796, 0.4045719504356384, -0.1402735561132431, -0.422646164894104, 0.1379549205303192, -0.039026666432619095, -0.48853492736816406, 0.24208082258701324, 0.40141135454177856, 0.3086491823196411, 0.14663870632648468, -0.27077507972717285, -0.25440141558647156, -0.10505577176809311, 0.4845753610134125, -0.25057679414749146, 0.45773568749427795, 0.1665707230567932, -0.5870041847229004, 0.2960328459739685, -0.01987690106034279, -1.0153127908706665, 0.5444432497024536, -0.01803917996585369, -0.29221418499946594, -0.2682177424430847, 0.5156859159469604, -0.2515186071395874, 0.26292791962623596, 0.9446240067481995, -0.04636257141828537, -0.3076155483722687, 0.25192317366600037, 0.3301090896129608, 0.5435511469841003, -0.2878877818584442, 0.5186086893081665, -0.016370493918657303, 0.343357652425766, -0.34674233198165894, -0.20217016339302063, -0.0802231878042221, 0.06464530527591705, 0.005398091860115528, 0.017883609980344772, -0.1999380886554718, -0.3622641861438751, 0.33014366030693054, -0.2590598165988922], [-0.5838912725448608, 0.7508081793785095, 0.22585390508174896, 0.342876672744751, -0.20556670427322388, 0.1456720232963562, -0.17347003519535065, -0.5991231799125671, 0.22042609751224518, 0.566720187664032, -0.22780917584896088, -0.23648621141910553, -0.44025078415870667, 0.0003193782758899033, 0.18858160078525543, 0.6143972277641296, -0.7356868386268616, 0.32993438839912415, 0.14672107994556427, -0.21654139459133148, -0.21985381841659546, -0.15941482782363892, -0.4258023202419281, 0.0225983839482069, 0.185607448220253, -0.36284467577934265, 0.41115453839302063, 0.016647137701511383, 0.34522509574890137, -0.6855067610740662, 0.6337488293647766, -0.5990908741950989, 0.48917144536972046, -0.14442728459835052, 0.4657747447490692, -0.40951332449913025, -0.2773092985153198, 0.47856011986732483, 0.2944774329662323, -0.5117937326431274, 0.1324579119682312, 0.6808326840400696, 0.17306514084339142, -0.5645720362663269, 0.36012333631515503, -0.14816634356975555, -0.07229132205247879, 0.06474204361438751, -0.05711253732442856, -0.5849226713180542, -0.1917007863521576, 0.014249787665903568, -0.6959228515625, 0.16714611649513245, -0.06932651251554489, -0.33382880687713623, 0.4183441996574402, -0.07911454141139984, 0.21318992972373962, 0.01738831028342247, -0.06329985707998276, 0.1042957752943039, 0.21818892657756805, -0.7534070014953613], [-0.6722490191459656, 0.0006880994187667966, -0.3100634515285492, 0.14853554964065552, 0.2956293821334839, 0.15874651074409485, 0.2566356360912323, 0.4930458664894104, 0.042787034064531326, 0.4015596807003021, 0.1724270135164261, -0.4714241921901703, 0.5528156757354736, -0.018668530508875847, -0.31263473629951477, -0.8429832458496094, -0.15434715151786804, 0.27397868037223816, 0.33934149146080017, -0.9559198617935181, 0.2067938596010208, -0.11955096572637558, -0.11488833278417587, -0.17676544189453125, -0.9296188354492188, 0.13260996341705322, 0.4428156912326813, -0.04250307008624077, 0.7973595857620239, -0.32335183024406433, -0.16231006383895874, -0.8907004594802856, 0.2635452151298523, -0.2453191876411438, -0.13536015152931213, 0.03497466817498207, 0.38481029868125916, 0.2379428744316101, 0.6516953110694885, 0.002595585072413087, -0.43413370847702026, -0.017050672322511673, 0.11928828805685043, -0.05968794226646423, -0.5529646277427673, 0.06702596694231033, 0.19142957031726837, -0.5769387483596802, 0.04209847375750542, -0.2520832121372223, 0.008753428235650063, -0.7416839003562927, -0.09193969517946243, 0.05106175318360329, -0.050734762102365494, -0.0881064385175705, -0.31199827790260315, -0.10863465815782547, -0.33170056343078613, 0.3927942216396332, 0.6012579798698425, 0.3911914825439453, -0.48294198513031006, 0.04570123180747032], [0.7195415496826172, -0.1764823943376541, 0.09992542117834091, 0.0589199960231781, 0.2195269763469696, -0.40937501192092896, -0.2225436121225357, 0.4883725941181183, 0.16221913695335388, 0.23218004405498505, 0.37497246265411377, 0.3585582375526428, 0.2383148968219757, 0.05527696758508682, 0.17722217738628387, -0.45245641469955444, 0.3436354994773865, 0.1069597378373146, -0.17946651577949524, 0.35606494545936584, -0.24973033368587494, 0.18784259259700775, 0.286102831363678, -0.010547866113483906, -0.11407273262739182, 0.06436893343925476, -1.0923186540603638, 0.15014900267124176, -0.16396789252758026, 0.6111542582511902, -0.5710064768791199, 0.38758647441864014, 0.08524824678897858, -0.5129615068435669, -0.49742409586906433, 0.06990189105272293, -0.19714027643203735, 0.009960537776350975, -0.48430171608924866, 0.38012605905532837, 0.12056562304496765, -0.3484000861644745, -0.04833270609378815, 0.1528111696243286, 0.1281631737947464, -0.29135987162590027, -0.4327276945114136, 0.037749458104372025, 0.02987576834857464, 0.4308167099952698, 0.16224484145641327, -0.521793782711029, 0.067783884704113, 0.045560214668512344, 0.2546927332878113, 0.16080226004123688, -0.8600836396217346, -0.3177715539932251, -0.2709503173828125, -0.09023690223693848, -0.5654500126838684, -0.6145215034484863, -0.07095683366060257, -0.40075451135635376], [-0.04180411249399185, -0.3612055480480194, -0.8117222189903259, 0.2827540934085846, -0.04969523474574089, -0.07322480529546738, -0.048328932374715805, -0.09271855652332306, 0.5213724970817566, 0.21599499881267548, -0.16257350146770477, -0.4638838768005371, 0.3624751567840576, -0.18404683470726013, 0.3238556385040283, -0.5438724756240845, -0.4113883376121521, 0.4182257354259491, 0.9285901188850403, 0.00769778760150075, -0.1896173059940338, 0.33699753880500793, 0.14766989648342133, 0.12917079031467438, -0.609219491481781, 0.4706164598464966, 0.2079010307788849, -0.4535364806652069, 0.15675629675388336, 0.018206702545285225, 0.6043359041213989, -0.13830538094043732, 0.6716931462287903, -0.03000716306269169, -0.22904068231582642, -0.41994625329971313, -0.0989522933959961, -0.017206357792019844, 0.6052415370941162, -0.06994157284498215, -0.3179631233215332, 0.6831255555152893, 0.07972046732902527, 0.35946884751319885, -0.29498276114463806, 0.13012027740478516, -0.646552324295044, 0.3415684401988983, -0.4610913097858429, -0.14070089161396027, -0.14730393886566162, -0.04162207618355751, 0.4044591188430786, 0.14866431057453156, -0.26333391666412354, -0.20836631953716278, -0.3572964072227478, 0.22635518014431, -0.3669773042201996, -0.18084529042243958, -0.05779062956571579, 0.14440970122814178, -0.21198511123657227, -0.3060317635536194], [0.38151344656944275, 0.3724147081375122, 0.555070698261261, -0.0036598690785467625, -0.05010974407196045, 0.11826473474502563, 0.18502004444599152, -0.17465630173683167, -0.02422128990292549, -0.7391761541366577, 0.20340131223201752, 0.40541595220565796, 0.2497306913137436, -0.18307387828826904, -0.5161939263343811, 0.17807339131832123, 0.5382379293441772, 0.059092968702316284, -0.004840826150029898, 0.13488273322582245, 0.1169581413269043, 0.2260381281375885, 0.08086767047643661, -0.0025911363773047924, -0.0592011883854866, -0.669417142868042, -0.23957787454128265, 0.3628072440624237, -0.3928958475589752, 0.20696447789669037, -0.07561030238866806, -0.1562403440475464, -0.28644269704818726, 0.41432279348373413, 0.1944485604763031, 0.4365961253643036, 0.20674104988574982, -0.6105030179023743, -0.30999934673309326, -0.026975933462381363, 0.2825414538383484, -0.7715854644775391, 0.42929360270500183, 0.32949596643447876, -0.2932024896144867, -0.3667593002319336, 0.41087961196899414, -0.06678643822669983, -0.47993922233581543, -0.0540819875895977, 0.2543811798095703, 0.13906115293502808, -0.11693747341632843, -0.22851328551769257, 0.30350708961486816, -0.48555418848991394, -0.04716971889138222, 0.3354816436767578, 0.7197293639183044, -0.16233840584754944, -0.4823828935623169, 0.7579567432403564, -0.15899820625782013, 0.16005444526672363], [0.579051673412323, -0.10592696815729141, -0.23666653037071228, 0.1621444821357727, 0.3017120361328125, 0.06539390981197357, 0.05910903587937355, 0.4309772551059723, 0.38420578837394714, 0.056649405509233475, 0.14761534333229065, -0.3001454174518585, 0.04918980598449707, -0.1403249204158783, -1.0133525133132935, 0.05456633120775223, 0.30226439237594604, -0.26708030700683594, 0.23994694650173187, -0.11091328412294388, 0.4182351529598236, -0.7927777171134949, -0.23822297155857086, 0.3950628936290741, -0.0677192360162735, -0.29549267888069153, 0.48945358395576477, -0.5290201902389526, 0.16536545753479004, 0.46835416555404663, -0.173211008310318, -0.7091289162635803, -0.7202123999595642, -0.29039493203163147, 0.053981877863407135, 0.06778865307569504, 0.08033931255340576, -0.5507773160934448, -0.10551273077726364, 0.34125837683677673, 0.15132950246334076, 0.4786391854286194, 0.5417764782905579, 0.06870967894792557, -0.2888839542865753, -0.17170989513397217, -0.29679128527641296, 0.38114067912101746, -0.23394757509231567, -0.21118174493312836, -0.34791454672813416, -0.02198275551199913, 0.08501733839511871, 0.4563274085521698, -0.13385678827762604, -0.00540494779124856, -0.5865887999534607, -0.07198349386453629, -0.48020297288894653, 0.01132217701524496, -0.06487978249788284, 0.06478291749954224, 0.2559114098548889, 0.3431663513183594], [0.34539228677749634, 0.48300638794898987, -0.06100351735949516, -0.014362692832946777, -0.5065872669219971, 0.15915550291538239, -0.05558295547962189, 0.5813518166542053, -0.08128506690263748, 0.377116858959198, -0.21960757672786713, -0.319063276052475, -0.15497195720672607, -0.7799301147460938, 0.17221058905124664, 0.7483347654342651, 0.3577102720737457, -0.11211737990379333, -0.1733056902885437, -0.041332606226205826, 0.5394766926765442, -0.6747777462005615, -0.13986441493034363, 0.3757205009460449, 0.24737334251403809, -0.28326353430747986, 0.4387507736682892, 0.14688779413700104, -0.2635408341884613, -0.19616760313510895, -0.1199759766459465, -0.38684362173080444, -0.06692347675561905, -0.25282594561576843, -0.19489024579524994, -0.6269338726997375, -0.10640395432710648, -0.05538308620452881, 0.09567258507013321, -0.08006417006254196, 0.3664249777793884, 0.2189350426197052, -0.33249151706695557, -0.6685090065002441, 0.12462560087442398, -0.31160449981689453, 0.20591461658477783, -0.013746846467256546, 0.7949095368385315, 0.3857436180114746, -0.9975871443748474, 0.2092326581478119, -0.3158639669418335, 0.09731215983629227, -0.25546568632125854, -0.4523169994354248, 0.1342998445034027, 0.4340215027332306, 0.10244680196046829, 0.1552511751651764, 0.2767537534236908, 0.025352541357278824, 0.7888948917388916, 0.3613037168979645], [0.2179260402917862, 0.17332816123962402, -0.19649752974510193, 0.9151063561439514, -0.35573580861091614, 0.17834745347499847, 0.14680980145931244, 0.04112464189529419, 0.0329122357070446, -0.06781687587499619, 0.5081092119216919, -0.21340972185134888, 0.15136118233203888, -0.08499223738908768, -0.6057090163230896, 0.039830487221479416, -0.15735335648059845, 0.3807370662689209, -0.37977129220962524, -0.47334226965904236, -0.07935887575149536, -0.046954747289419174, 0.25117477774620056, 0.23752082884311676, 0.0679095983505249, 0.04763004928827286, -0.4028376340866089, -0.03864258900284767, -0.09822524338960648, 0.34507548809051514, -0.8216230273246765, -0.20197340846061707, -0.4139842987060547, -0.3232804238796234, 0.7316597104072571, 0.16752693057060242, 0.0243556909263134, -0.21453650295734406, 0.013408971950411797, 0.1071365624666214, -0.13971185684204102, 0.3056129813194275, -0.25331148505210876, 0.5826777219772339, 0.21850110590457916, 0.16048172116279602, -0.47986894845962524, 0.6503859758377075, -0.6324698328971863, 0.12591491639614105, 0.14096616208553314, 0.18449178338050842, 0.2600618302822113, -0.2878948748111725, -0.11269902437925339, 0.3475072979927063, -0.13952931761741638, -0.36921215057373047, -0.46968376636505127, -0.47831615805625916, -0.20834468305110931, -0.41086700558662415, -0.07968717068433762, 0.08274546265602112], [-0.13272827863693237, 0.03333185985684395, -0.5088534951210022, 0.11596666276454926, -0.22625213861465454, 0.7205020189285278, -0.09261656552553177, -0.17447534203529358, 0.6707872152328491, 0.03518150374293327, -0.19422069191932678, -0.1994326412677765, 0.9986061453819275, 0.07330619543790817, -0.01670447550714016, 0.05010051652789116, 0.19981250166893005, 0.06871285289525986, 0.007501816842705011, 0.18692627549171448, 0.19832944869995117, -0.449313759803772, -0.16654513776302338, 0.28054970502853394, -0.4058423340320587, 0.1759072244167328, 0.1764506995677948, -0.49844610691070557, 0.5716215372085571, -0.08231622725725174, -0.4058240056037903, -0.24232575297355652, 0.18707811832427979, 0.053029391914606094, 0.20841561257839203, -0.5576858520507812, -0.01406854297965765, 0.047346387058496475, 0.18309497833251953, 1.3293286561965942, -0.5449907779693604, 0.011140519753098488, 0.2077120542526245, -0.04775324463844299, -0.0920947939157486, 0.40081587433815, -0.5178321003913879, 0.04435386136174202, -0.06652447581291199, 0.4742302894592285, 0.2692430913448334, -0.40191781520843506, 0.24765755236148834, 0.6578405499458313, 0.29999151825904846, 0.26177558302879333, -0.09715807437896729, 0.39636561274528503, -0.6314734816551208, -0.19675618410110474, 0.7408692240715027, -0.7125831246376038, -0.19829262793064117, 0.09358534961938858], [-0.29071518778800964, 0.039889875799417496, -0.14407913386821747, 0.42351841926574707, -0.15979169309139252, 0.46380814909935, -0.20429065823554993, -0.07783564180135727, -0.0032880741637200117, 0.3817248046398163, -0.21722498536109924, 0.21976932883262634, -0.3598901033401489, -0.09751749038696289, -0.09774316102266312, 0.1307203322649002, -0.10744660347700119, 0.6500312089920044, -0.05021590366959572, 0.39691290259361267, -0.2508004307746887, -0.19962798058986664, -0.4327038526535034, -0.5175212025642395, -0.18246816098690033, -0.3485619127750397, 0.33194783329963684, 0.5073622465133667, -0.41852840781211853, -0.20125135779380798, 0.3545576333999634, -0.24692130088806152, -0.012135529890656471, 0.2348892241716385, -0.2155180126428604, -0.040999315679073334, -0.33223584294319153, -0.41107413172721863, -0.4639972150325775, 0.169449582695961, -0.2198212444782257, 0.39932629466056824, -0.581318199634552, 0.345974862575531, 0.2407054305076599, -0.09116800129413605, -0.032656218856573105, 0.3146330714225769, -0.22483454644680023, 0.16514606773853302, 0.10516581684350967, -0.19059230387210846, 0.34368327260017395, -0.18904191255569458, 0.45712319016456604, -0.35446229577064514, 0.40764620900154114, 0.4130478799343109, -0.4159902334213257, -0.49414247274398804, 0.46195629239082336, -0.1945294737815857, 0.11109207570552826, -0.2940467596054077], [-0.3037973642349243, -0.6337180137634277, -0.14039939641952515, -0.19226638972759247, -0.09611158072948456, 0.19349569082260132, -0.306011825799942, -0.20661184191703796, 0.5489031076431274, 0.7744450569152832, 0.2182682603597641, -0.23078006505966187, 0.4702802002429962, -0.4819834530353546, 0.6916928291320801, -0.16795533895492554, -0.1339198797941208, -0.013143728487193584, 0.35585370659828186, 0.47512364387512207, 0.20878711342811584, 0.1098133996129036, 0.400100976228714, 0.0014876921195536852, -0.18082882463932037, 0.8732852339744568, 0.025596216320991516, -0.17703402042388916, 0.594933032989502, 0.14373916387557983, 0.2108919322490692, 0.25227683782577515, 0.8450771570205688, -0.11115497350692749, 0.19019679725170135, -0.263929545879364, 0.5142550468444824, 0.27123385667800903, 0.35650354623794556, 0.30849626660346985, -0.14516086876392365, 0.6085885167121887, 0.39085137844085693, 0.17484264075756073, -0.10075405985116959, 0.1053880825638771, -0.14396685361862183, -0.08162882924079895, 0.2688024044036865, -0.06815339624881744, -0.026843398809432983, 0.05993706360459328, 0.5908375978469849, 0.46701639890670776, -0.4681837260723114, -0.39873242378234863, 0.17685234546661377, -0.12140673398971558, 0.03620687872171402, 0.1643156260251999, -0.4191826581954956, 0.029438931494951248, -0.20700637996196747, 0.058877795934677124], [-0.024256514385342598, 0.3597329556941986, 0.02018575742840767, -0.24179844558238983, 0.2481376826763153, -0.9743672013282776, -0.4294780194759369, 0.47348982095718384, -0.6086801886558533, -0.05363372713327408, 0.028669673949480057, -0.26664796471595764, -0.2003115564584732, 0.21452811360359192, -0.23360897600650787, -0.05759361758828163, 0.03531328961253166, 0.12998633086681366, -0.674664318561554, -0.5905272364616394, 0.44059693813323975, 0.11911743134260178, 0.11561503261327744, 0.15688401460647583, -0.1630180925130844, -0.5297698974609375, 0.486150324344635, 0.47223764657974243, 0.00858098454773426, -0.589601457118988, -0.2579915225505829, -0.06376952677965164, -0.4121741056442261, -0.4783368706703186, 0.17771194875240326, -0.0035466032568365335, 0.21746787428855896, -0.11087476462125778, -0.17803731560707092, -0.7784683108329773, 0.006899552885442972, -0.08564305305480957, 0.16115157306194305, -0.7457927465438843, -0.17579267919063568, -0.3541594445705414, 0.22861477732658386, -0.3183491826057434, 0.16427196562290192, 0.16965730488300323, -0.39037707448005676, 0.45623499155044556, -0.5563029050827026, 0.23115159571170807, 0.1479221135377884, 0.015160026028752327, 0.13347116112709045, 0.04624287411570549, 0.14791274070739746, -0.22155915200710297, -0.30879828333854675, 0.49295154213905334, -0.5570113658905029, 0.007649540901184082], [-0.08818494528532028, -0.5093662142753601, -0.5621323585510254, 0.3482944965362549, 0.15422382950782776, 0.5620264410972595, 0.3277682662010193, 0.1971069574356079, 0.336955726146698, 0.38531580567359924, -0.1598881185054779, -0.22239351272583008, -0.29834964871406555, -0.32572081685066223, 0.4551737606525421, 0.405770868062973, -0.6151233911514282, -0.0977313444018364, 0.01913420483469963, 0.42228537797927856, -0.17690221965312958, 0.4921014606952667, -0.1640649288892746, -0.24957136809825897, 0.404360830783844, 0.04815012961626053, 0.18609416484832764, 0.16882187128067017, -0.36694881319999695, -0.704582691192627, 0.482950359582901, 0.2793329358100891, 0.5848943591117859, -0.1294209510087967, -0.014492564834654331, 0.22603821754455566, -0.1140289232134819, 0.01947881281375885, 0.22517764568328857, 0.04159704968333244, -0.2853344976902008, 0.04121072590351105, -0.20192764699459076, 0.06187310814857483, -0.2211933732032776, 0.3567867577075958, -0.5941056609153748, -0.14120036363601685, 0.046026766300201416, -0.38544961810112, 0.26903948187828064, 0.8828126788139343, 0.17412059009075165, 0.15956369042396545, -0.5737848877906799, -0.02309470623731613, 0.4855090081691742, 0.4404444396495819, -0.29385119676589966, 0.022236013785004616, -0.39442574977874756, 0.13678015768527985, 0.1831848919391632, -0.1642276644706726], [0.014301910996437073, -0.06914437562227249, 0.4554465413093567, -0.5690411925315857, -0.0012473514070734382, 0.0602412149310112, 0.3784545063972473, -0.7958716750144958, -0.1167009249329567, -1.0162516832351685, 0.007876873947679996, -0.09768884629011154, 0.09793152660131454, 0.524249792098999, -0.39406540989875793, -0.41679051518440247, 0.43003523349761963, 0.025276843458414078, -0.5068619847297668, 0.250568687915802, 0.0768820270895958, 0.08957559615373611, -0.4111049771308899, 0.4160442352294922, 0.1754998117685318, 0.17083194851875305, -0.8400768041610718, -0.33617088198661804, -0.08172265440225601, -0.45940303802490234, -0.14275623857975006, 0.47019943594932556, 0.2997743785381317, -0.5698290467262268, -0.21257975697517395, 0.35443568229675293, 0.07999282330274582, 0.8464453220367432, 0.14156371355056763, -0.398780882358551, -0.14078551530838013, -0.06895146518945694, 0.002788807498291135, 0.5403085350990295, 0.2883297801017761, 0.09471617639064789, 0.19529442489147186, -0.025958390906453133, -0.3747641444206238, 0.17257782816886902, 0.5387824177742004, -0.2979111075401306, 0.36277535557746887, -0.29635733366012573, 0.08310956507921219, -0.14085696637630463, -0.18573325872421265, -0.4319608509540558, -0.2150096744298935, -0.22270922362804413, 0.029729221016168594, -0.09432969242334366, 0.33577895164489746, 0.4552958011627197], [0.005719875451177359, -0.5856584310531616, -0.13952124118804932, 0.2537245452404022, 0.053410399705171585, 0.09320534020662308, -0.3213617503643036, -0.22463519871234894, 0.4599953591823578, 0.12686201930046082, 0.03410756215453148, 0.08323227614164352, -0.1408572942018509, 0.011159108020365238, 0.6860902905464172, -0.18652202188968658, 0.27881306409835815, -0.05233757197856903, 0.310822993516922, 0.6523433923721313, 0.15877029299736023, 0.8331351280212402, -0.2533276379108429, -0.2846929132938385, -0.45187556743621826, 0.32288679480552673, -0.9357343912124634, 0.1975850909948349, 0.0013125819386914372, 0.3499930799007416, -0.014451541006565094, -0.40366148948669434, 0.06568426638841629, -0.12172483652830124, -0.3612463176250458, -0.09652896225452423, -0.3466249406337738, -0.7324102520942688, 0.0022849917877465487, -0.006302903406322002, 0.06149572134017944, -0.2615388035774231, -0.1010541319847107, 0.28472310304641724, 0.0013013691641390324, -0.3250739574432373, -0.14004994928836823, -0.1652124971151352, -0.3240317106246948, -0.3103998601436615, -0.04371786117553711, -0.10983036458492279, 0.6880307197570801, -0.3010490834712982, -0.04434923827648163, -0.11412841826677322, -1.0258126258850098, -0.05263432487845421, 0.7127149701118469, 0.378113716840744, -0.3089052438735962, -0.14903181791305542, 0.21858148276805878, -0.4412643313407898], [0.16911211609840393, 0.547278106212616, 0.2874648869037628, 0.437306672334671, -0.10454536974430084, -0.42279213666915894, -0.0073560322634875774, -0.3183298110961914, -0.35235610604286194, -0.3058673143386841, -0.3352871239185333, 0.043855492025613785, -0.42487457394599915, -0.37578290700912476, -0.4343961477279663, 1.0639525651931763, 0.4492305517196655, -0.4156801104545593, 0.18155860900878906, -0.15018291771411896, -0.06558304280042648, -0.46574848890304565, -0.35677891969680786, -0.2297421395778656, 0.48238110542297363, 0.08214974403381348, 0.012646115384995937, -0.177414208650589, 0.12418772280216217, -0.20405283570289612, 0.24177490174770355, -0.2880408465862274, 0.15509536862373352, 0.23251213133335114, -0.08444909751415253, 0.6583249568939209, -0.04050916060805321, -0.7928871512413025, -0.010076994076371193, -0.37762901186943054, -0.35479775071144104, 0.07830639183521271, 0.5507722496986389, -0.44018861651420593, -0.6672801971435547, -0.690285325050354, -0.17894084751605988, -0.16194626688957214, -0.36451950669288635, -0.6213358044624329, -0.4894627630710602, 0.21679027378559113, -0.2688308656215668, -0.22670002281665802, -0.22722625732421875, -0.32029691338539124, 0.04670388251543045, 0.28139808773994446, 0.25057917833328247, -0.08775035291910172, 0.29889020323753357, 0.6856698989868164, 0.3472438454627991, -0.3335278630256653], [0.1747651845216751, 0.49321800470352173, 0.1955917924642563, -0.13023199141025543, -0.21872453391551971, -0.4049897789955139, -0.23575718700885773, 0.03896642476320267, 0.08334077149629593, 0.23890861868858337, -0.0731019452214241, 0.10981464385986328, -0.15189655125141144, 0.1580127477645874, 0.2994964122772217, 0.11379595845937729, 0.18069913983345032, 0.08871712535619736, -0.723818302154541, 0.1629445105791092, 0.10745581984519958, -0.08506620675325394, 0.2673990726470947, -0.0309258121997118, 0.012981723062694073, 0.053987689316272736, -0.07501521706581116, 0.3233804404735565, -0.4523589313030243, 0.4100342094898224, 0.6579135060310364, 0.013072443194687366, -0.01764572598040104, -0.42558926343917847, 0.5376380085945129, -0.13479121029376984, 0.5431676506996155, -0.2196849286556244, -0.089566171169281, -0.4599355161190033, 0.4776666462421417, 0.14373879134655, -0.28956183791160583, -0.5723338723182678, 0.13318860530853271, -0.47213980555534363, 0.5351135730743408, 0.2610142230987549, 0.693206250667572, -0.1122003048658371, -0.5039294362068176, -0.046503711491823196, -0.4807318449020386, -0.01408500038087368, -0.19763685762882233, -0.46248766779899597, 0.023792577907443047, 0.38650980591773987, 0.456798255443573, -0.010251465253531933, -0.23101277649402618, 0.21599318087100983, -0.13465102016925812, 0.05469078943133354], [-0.18423360586166382, -0.028547795489430428, -0.2776052951812744, 0.10033202916383743, -0.18610107898712158, -0.47660204768180847, 0.00269789039157331, -0.0535813570022583, 0.07489892095327377, 0.21723142266273499, 0.05739419534802437, -0.2638809382915497, 0.3191410303115845, -0.4825837016105652, -0.3404580056667328, 0.48406803607940674, 0.2099216729402542, -0.08050122857093811, -0.13801489770412445, -0.66191565990448, 0.5988819003105164, -0.19880525767803192, -0.5402750968933105, 0.10952625423669815, -0.025169774889945984, -0.30992522835731506, 0.17077690362930298, -0.11503560841083527, -0.869817316532135, -0.05849314108490944, -0.28685981035232544, 0.0882776528596878, -0.368767112493515, 0.5436388850212097, 0.3539934456348419, 0.3015378415584564, -0.053611744195222855, -0.5830709934234619, -0.24961167573928833, -0.07687348127365112, 0.6845315098762512, 0.11039832979440689, 0.14629237353801727, -0.6964174509048462, 0.3100174367427826, -0.4557063579559326, 0.8166805505752563, 0.5604466795921326, 0.560749888420105, 0.2399139553308487, -0.5975483655929565, 0.06886845082044601, -0.5559327602386475, 0.31125399470329285, 0.5769919157028198, -0.38886740803718567, 0.3072871267795563, 0.3956075608730316, 0.5200921893119812, 0.27968689799308777, -0.11836860328912735, -0.17076434195041656, 0.36411237716674805, 0.10076497495174408], [-0.31696856021881104, 0.2762419879436493, 0.19842173159122467, -0.44472888112068176, 0.22865726053714752, -0.04841231927275658, -0.31438225507736206, 0.19841152429580688, 0.1609053909778595, -0.001929385936819017, 0.639491856098175, 0.32969939708709717, -0.23450054228305817, 1.0061001777648926, 0.5865865349769592, -0.3720411956310272, 0.11466728150844574, 0.8895171880722046, 0.07328815758228302, -0.8182681798934937, -0.375432550907135, 0.25976160168647766, 0.4160102307796478, 0.5680431723594666, -0.08888814598321915, 0.2064400017261505, -0.028087984770536423, -0.7940808534622192, 0.39035362005233765, -0.3560815155506134, -0.1044526919722557, 0.517814040184021, 0.5877687931060791, 0.09606730937957764, -0.22413960099220276, -0.09905146807432175, -0.1434812843799591, 0.7041452527046204, 0.32133498787879944, -0.10885188728570938, -0.1432942897081375, -0.18317508697509766, 0.1284732073545456, 0.22561907768249512, 0.171963632106781, 0.6133436560630798, -0.08219736069440842, 0.3388306796550751, 0.1748719960451126, -0.3340224623680115, 0.03169877827167511, -0.30133190751075745, 0.2226269692182541, -0.057863082736730576, -0.13613514602184296, -0.06720977276563644, -0.10749342292547226, -0.577252984046936, -1.1739598512649536, 0.00544730992987752, 0.24371768534183502, -0.24884295463562012, 0.3471102714538574, 0.18857762217521667], [0.16894423961639404, -0.2634274661540985, 0.09879770874977112, 0.03443571925163269, -0.16085197031497955, 0.04464748874306679, 0.2273252159357071, 0.16453948616981506, 0.6668100357055664, -0.09014624357223511, 0.05416630208492279, -0.13018539547920227, 0.2340984046459198, -0.22605887055397034, -0.24866051971912384, -0.027742113918066025, 0.538746178150177, 0.0040726568549871445, -0.10312234610319138, -0.6325680017471313, 0.6438124775886536, -0.3625439405441284, -0.1813887357711792, 0.38135308027267456, -0.3850383460521698, 0.314578115940094, -0.5749112367630005, -0.9172298908233643, -0.13726089894771576, 0.7869501113891602, 0.04435979202389717, -0.14087378978729248, -0.1485917866230011, 0.24441009759902954, -0.08238768577575684, -0.05662604793906212, -0.5697253346443176, 0.15443004667758942, -0.046010758727788925, -0.23745882511138916, -0.49916207790374756, 0.03958232328295708, 0.386128693819046, 0.04987568408250809, 0.21566614508628845, 0.4580514132976532, -0.04925178363919258, 0.0637136846780777, -0.35632598400115967, 0.02005258947610855, -0.030127612873911858, -0.8990538716316223, 0.28705936670303345, 0.11951089650392532, -0.13564659655094147, 0.5113751292228699, -1.0128916501998901, -0.16256047785282135, -0.44413530826568604, -0.060998089611530304, 0.02350407838821411, 0.15186907351016998, 0.37921568751335144, 0.25220853090286255], [-0.22032050788402557, 0.09782365709543228, 0.5244455337524414, 0.14828956127166748, 0.1250113844871521, -0.02002480812370777, -0.2872718274593353, 0.20321257412433624, -0.35875824093818665, -0.34204068779945374, 0.34990471601486206, -0.14003947377204895, -0.1674739569425583, 0.013380426913499832, -0.12368857860565186, 0.10957810282707214, -0.010371053591370583, 0.033999498933553696, -0.4289700388908386, -0.3137566149234772, -0.2585585117340088, 0.17990633845329285, -0.24384453892707825, 0.17498433589935303, 0.2680490016937256, 0.399646520614624, -0.6119381189346313, -0.8277882933616638, -0.10670711100101471, 0.35068652033805847, -0.2026790976524353, 0.6191501021385193, 0.2305627167224884, 0.01242879219353199, 0.11460860818624496, 0.2132880687713623, -0.7220357656478882, 0.21859557926654816, 0.2418721616268158, -0.1438715159893036, 0.5236225128173828, -0.5258436799049377, 0.12666897475719452, -0.09603244811296463, 0.2606475353240967, -0.10476993769407272, 0.0872899666428566, 0.09857580065727234, -0.07656074315309525, 0.34962746500968933, -0.3187175691127777, -0.3016200065612793, 0.5655779242515564, 0.04864199087023735, -0.19429735839366913, 0.3125602602958679, -0.10457567870616913, -0.031128184869885445, -0.3601750433444977, 0.3067207336425781, 0.06237465888261795, -0.8495159149169922, 0.22028496861457825, -0.1882392317056656], [-0.04867114499211311, 0.24812769889831543, 0.33074989914894104, -0.2795793116092682, 0.03685787692666054, -0.33379435539245605, -0.008973799645900726, -0.07404311746358871, -0.18161006271839142, 0.2123202681541443, 0.02175542339682579, -0.27793237566947937, 0.2674328684806824, 0.8700957298278809, -0.10120789706707001, -0.15123827755451202, -0.31350764632225037, -0.05680844932794571, -0.046132512390613556, -0.5551362633705139, -0.36961209774017334, -0.6653294563293457, 0.18638603389263153, -0.01407005824148655, -0.04638738930225372, 0.11013008654117584, 0.4964316189289093, -0.11208528280258179, 0.5609239339828491, -0.6542997360229492, 0.19733572006225586, 0.20769433677196503, 0.040095094591379166, -0.26519253849983215, -0.35331085324287415, -0.447134792804718, 0.02438502013683319, 0.7704864144325256, 0.24404655396938324, 0.10679429769515991, -0.5057125091552734, 0.3120861053466797, 0.020598499104380608, -0.4813457131385803, -0.4516626000404358, -0.115046426653862, 0.01128142885863781, -0.2519743740558624, 0.14334553480148315, -0.23486097157001495, 0.4426957368850708, -0.08065224438905716, -0.12997744977474213, -0.18678580224514008, -0.5341378450393677, -0.40473660826683044, 0.24549728631973267, -0.16425929963588715, -0.12514537572860718, -0.2461950033903122, 0.6311084628105164, -0.10656485706567764, -0.2085937112569809, -0.5545639991760254], [0.02350936271250248, -0.07594864070415497, 0.03878432884812355, -0.5465216040611267, 0.6009356379508972, 0.35090938210487366, -0.4270464777946472, 0.5771307945251465, 0.417989045381546, 0.6914637088775635, 0.00688906479626894, -0.16138282418251038, 0.11873733997344971, 0.08506075292825699, 0.269289493560791, 0.16888323426246643, 0.05801418796181679, -0.42932578921318054, -0.21559901535511017, -0.07164504379034042, 0.36750665307044983, 0.05852565914392471, 0.6362247467041016, 0.5936557650566101, -0.29893097281455994, 0.6409656405448914, 0.4003608822822571, 0.09842197597026825, 0.13850422203540802, 0.4399029612541199, 0.028131525963544846, 0.2067258358001709, 0.4122917354106903, -0.29822400212287903, -0.17800964415073395, -0.8229990005493164, -0.05740293487906456, 0.6717944741249084, -0.08616434037685394, -0.2623278498649597, 0.6183533668518066, 0.07957174628973007, -0.16001728177070618, -0.04271313548088074, 0.16455481946468353, -0.02021278254687786, 0.09402330964803696, -0.013247830793261528, 0.4011520445346832, 0.1981184333562851, -0.6019010543823242, 0.4366733729839325, -0.06382723152637482, -0.08003035187721252, -0.3115856647491455, 0.006748101208359003, 0.11700315028429031, 0.07323543727397919, 0.1572006493806839, 0.11789406836032867, 0.15401259064674377, -0.4273890256881714, -0.003527303459122777, 0.08337510377168655], [0.03164302930235863, -0.02133389748632908, 0.26129382848739624, -0.11799152195453644, -0.08250825852155685, -0.07010118663311005, 0.1274334341287613, -0.767444908618927, -0.39476773142814636, 0.3653131425380707, 0.058228254318237305, 0.10621517896652222, -0.6814635396003723, 0.28112247586250305, 0.14400072395801544, 0.066144198179245, -0.2481236457824707, -0.2903498411178589, -0.4129122793674469, 0.29754942655563354, -0.6807783246040344, 0.5415324568748474, 0.06766936182975769, -0.2509157061576843, -0.39015793800354004, 0.07639647275209427, -0.35069739818573, 0.48237884044647217, 0.3463762700557709, 0.07967691123485565, -0.037858035415410995, 0.24858421087265015, 0.2858882248401642, -0.7754927277565002, -0.3741731643676758, -0.02786562219262123, -0.1985521763563156, -0.01123628206551075, -0.3157854974269867, -0.6148222088813782, 0.3294637203216553, -0.2570261061191559, -0.13889974355697632, 0.013132122345268726, 0.3468857407569885, -0.39684003591537476, -0.13218370079994202, -0.15501216053962708, 0.23391687870025635, 0.11656511574983597, -0.06365853548049927, 0.32089802622795105, 0.16533337533473969, -0.7011864185333252, -0.17513413727283478, -0.17784951627254486, -0.022842280566692352, 0.1136147528886795, 0.16277337074279785, 0.5026702284812927, -0.42065009474754333, -0.05750946328043938, -0.40757042169570923, -0.29583802819252014], [0.25801920890808105, -0.5898168087005615, 0.27058929204940796, -0.0405096672475338, -0.05894726514816284, -0.6049292087554932, -0.05718595162034035, 0.03307833895087242, -0.08916617184877396, -0.3488130271434784, 0.4880489706993103, -0.15931013226509094, -0.07720927894115448, 0.5178412795066833, -0.28192728757858276, -0.3979909121990204, 0.1851111501455307, 0.5237308144569397, -0.22289714217185974, -0.2413462996482849, -0.4574684500694275, 0.03604653477668762, 0.25733259320259094, 0.205205500125885, -0.09352641552686691, 0.0494086816906929, -0.23423409461975098, -0.27359965443611145, 0.537902295589447, 0.41402673721313477, 0.05750763416290283, 0.3279096484184265, -0.1436648666858673, -0.15422634780406952, -0.11334650218486786, 0.5943782925605774, 0.3012213110923767, 0.5223456025123596, -0.02757635898888111, -0.02109365351498127, 0.09111659228801727, -0.5969299077987671, 0.25296100974082947, -0.19863593578338623, -0.27729517221450806, 0.08479921519756317, 0.36223137378692627, 0.15896014869213104, -0.08010460436344147, 0.2677515745162964, 0.22511887550354004, -0.25225380063056946, 0.44699499011039734, -0.5947341918945312, -0.0070040905848145485, -0.23196034133434296, -1.3432608842849731, -0.26867708563804626, 0.05566532909870148, -0.1873406022787094, 0.05213872715830803, 0.042148612439632416, -0.7168582081794739, -0.1937399059534073], [-0.4265049695968628, 0.09448614716529846, -0.4505707323551178, -0.23179754614830017, -0.7168503999710083, -0.5104482173919678, -0.006741058547049761, 0.6658369898796082, 0.3659217655658722, 0.11181807518005371, 0.050173964351415634, 0.012165367603302002, 0.22276216745376587, 0.12088225781917572, -0.31046220660209656, 0.3330842852592468, -0.46379977464675903, 0.20868772268295288, -0.160794198513031, -0.2938305735588074, 0.5554981827735901, -0.29398855566978455, -0.05155102163553238, 0.03367798030376434, 0.39417406916618347, -0.24358488619327545, 0.160870760679245, -0.17361842095851898, -0.07214868068695068, 0.1110844612121582, 0.27531513571739197, -0.019876377657055855, 0.18459752202033997, 0.14749066531658173, 0.0005954181542620063, -0.08164551109075546, -0.24083960056304932, -0.3294696509838104, -0.16833385825157166, -0.44809964299201965, 0.0932793840765953, 0.39956605434417725, -0.7231117486953735, -0.46636030077934265, -0.0802612155675888, -0.30754169821739197, 0.010435380041599274, -0.029114926233887672, 0.533942699432373, -0.17944735288619995, -0.35521557927131653, 0.148222878575325, 0.1740792840719223, 0.5059710144996643, 0.2835284471511841, -0.6303514242172241, 0.2513991892337799, 0.35411033034324646, 0.19537599384784698, -0.10661957412958145, -0.9629236459732056, 0.3107512891292572, -0.29227370023727417, -0.14584071934223175], [0.14363381266593933, -0.20026925206184387, 0.9293748140335083, 0.15158459544181824, 0.3033303916454315, -0.10534437000751495, 0.06814692169427872, -0.08150885999202728, -1.0188194513320923, -0.24388514459133148, -0.07039231806993484, 0.5811900496482849, -0.12514597177505493, 0.5419012904167175, 0.06195582449436188, 0.2042721062898636, 0.04222825914621353, 0.011803421191871166, -1.0996469259262085, -0.15360790491104126, -0.4808683693408966, 0.19324351847171783, 0.1654096096754074, -0.536583662033081, 0.43030574917793274, -0.2559407651424408, -0.05032750964164734, 0.608191192150116, 0.15550386905670166, -0.30310729146003723, -0.8593975305557251, 0.07531285285949707, 0.16298267245292664, 0.07515088468790054, -0.14618626236915588, 0.3542940616607666, -0.22131340205669403, 0.35144296288490295, -0.08637659251689911, 0.14745379984378815, 0.1695035696029663, -0.10140155255794525, -0.202550008893013, -0.2730361819267273, 0.1301705688238144, 0.054929401725530624, 0.20520013570785522, 0.06746130436658859, 0.11125534772872925, 0.38929012417793274, -0.2494926005601883, 0.3206756114959717, -0.38975846767425537, -0.1473027616739273, 0.3190195858478546, 0.03132295608520508, 0.311433881521225, 0.377657026052475, -0.07304469496011734, -0.23364242911338806, -0.16294848918914795, -0.7149686813354492, -0.07440812885761261, 0.6770683526992798], [0.1948278397321701, -0.5721004009246826, -0.01869106851518154, 0.4977097809314728, 0.5649586915969849, 0.6587023735046387, 0.032039180397987366, 0.14571954309940338, 0.17688313126564026, 0.2956140339374542, 0.2755884528160095, -0.2886931598186493, 0.08835963904857635, -0.19823579490184784, 0.46325236558914185, -0.3806397318840027, 0.41890275478363037, 0.08052258938550949, -0.06062828749418259, 0.2122698724269867, -0.20447562634944916, 0.19898279011249542, 0.5120421648025513, -0.21221353113651276, -0.20096683502197266, -0.018115542829036713, 0.2657366096973419, -0.10772694647312164, 0.22155193984508514, 0.0703204944729805, -0.08200730383396149, -0.3761819899082184, 0.34791451692581177, -0.1225695013999939, -0.42703086137771606, 0.1751600205898285, -0.06546299904584885, 0.24826963245868683, 0.39404359459877014, 0.4289289712905884, -0.13897041976451874, 0.15935063362121582, 0.6226733922958374, 0.11574327200651169, -0.5562962889671326, 0.06970834732055664, -0.9396937489509583, -0.5050538778305054, -0.23096518218517303, -0.32557782530784607, 0.21290269494056702, -0.3080463409423828, 0.28838837146759033, 0.28564518690109253, 0.17166198790073395, 0.46668750047683716, -0.09357838332653046, -0.24597373604774475, -0.12652039527893066, 0.36277490854263306, 0.3232579529285431, -0.01109346840530634, 0.27253812551498413, -0.10434848815202713], [0.21673907339572906, -0.020903205499053, -0.04924972355365753, 0.17054136097431183, 0.11282743513584137, 0.8370386362075806, 0.12285670638084412, -0.08558757603168488, 0.28556838631629944, -0.1716425120830536, -0.16255676746368408, -0.8151049017906189, -0.10459060221910477, 0.3795788884162903, 0.1366419941186905, 0.3957120478153229, -0.9687572717666626, 0.11506260186433792, 0.8604348301887512, -0.011692777276039124, -0.20331546664237976, -0.18416300415992737, 0.048828061670064926, 0.14933989942073822, 0.2731603682041168, 0.31346458196640015, 0.44307467341423035, 0.09835995733737946, 0.15947657823562622, -0.26183003187179565, 0.14690859615802765, 0.03773050382733345, 0.7887914776802063, -0.02502719685435295, -0.6478846669197083, -0.21180710196495056, -0.029506143182516098, -0.503997266292572, 0.2021641880273819, -0.24352611601352692, -0.27147358655929565, 0.3077186942100525, 0.7680414915084839, -0.10274475812911987, -0.18823617696762085, 0.42401477694511414, -0.34940820932388306, -0.9958042502403259, -0.5393452644348145, -1.0798625946044922, 0.3952023386955261, 0.10003026574850082, -0.040483713150024414, 0.22029583156108856, -0.32905980944633484, -0.049314383417367935, 0.09304522722959518, -0.04573577269911766, 0.1279028207063675, 0.060663849115371704, 0.6642484664916992, 0.5089443922042847, -0.06537564843893051, -0.2130020409822464], [0.009483092464506626, -0.5818865895271301, -0.3688025176525116, -0.36426907777786255, 0.20469790697097778, 0.15765945613384247, 0.23122863471508026, 0.5396560430526733, 0.0011944075813516974, -0.1402890682220459, 0.11890712380409241, -0.3292804956436157, -0.29325413703918457, -0.26898032426834106, 0.37961485981941223, -0.21496808528900146, 1.1234568357467651, -0.7321756482124329, 0.32634761929512024, 0.3410382568836212, 0.10212521255016327, 0.07892867922782898, 0.002026044763624668, 0.002943062223494053, 0.48146772384643555, 0.029228584840893745, -0.4897015690803528, -0.10638755559921265, -0.3143005669116974, 0.8935043811798096, -0.056070297956466675, 0.26982712745666504, 0.22159720957279205, -0.43642622232437134, -0.02114894986152649, 0.16033673286437988, -0.44358259439468384, -0.007193608209490776, 0.2666303813457489, 0.09793634712696075, 0.7439268231391907, -0.12899282574653625, 0.4741736352443695, -0.11050283163785934, 0.25197136402130127, 0.5924903154373169, 0.10942278057336807, -0.17722554504871368, -0.3637557327747345, -0.6773302555084229, -0.09905026108026505, -0.043666157871484756, 0.4418048560619354, -0.026364151388406754, 0.0003603667428251356, 0.5354529023170471, -0.31973201036453247, -0.3877972662448883, -0.11694391816854477, -0.16164611279964447, -0.6937677264213562, 0.336342453956604, 0.7590470910072327, -0.1959526240825653], [0.27330106496810913, 0.8811100125312805, 0.9835659265518188, 0.195640429854393, 0.046282559633255005, -0.09726185351610184, -0.06694686412811279, -0.13535091280937195, -0.06697843223810196, -0.3002132177352905, -0.2626602351665497, -0.26554515957832336, -0.4535573124885559, -0.07979825139045715, 0.11650880426168442, 0.8927968144416809, -0.18199887871742249, -0.03588468208909035, 0.4053958058357239, -0.32986655831336975, -0.053714361041784286, -0.16910555958747864, -0.011803653091192245, -0.32461050152778625, 0.211279034614563, 0.09446074068546295, 0.49283766746520996, -0.2648157775402069, 0.011220898479223251, -0.5604318380355835, -0.1607382446527481, 0.38352444767951965, 0.37787988781929016, 0.01975591480731964, -0.3334457576274872, 0.13528063893318176, -0.14155906438827515, -0.36662593483924866, -0.15385103225708008, -0.23006325960159302, 0.4845365285873413, -0.09268365800380707, 0.15355268120765686, -1.1369850635528564, -0.5195693969726562, -0.6377487182617188, 0.029715627431869507, 0.23416633903980255, 0.20839503407478333, 0.06512144207954407, -0.3757626414299011, 0.22360046207904816, -0.7061642408370972, -0.2855425179004669, -0.2698131203651428, -0.30143535137176514, 0.42540663480758667, 0.5764356255531311, 0.025195220485329628, -0.19005508720874786, 0.3214400112628937, 0.05636831000447273, -0.10321491211652756, 0.13181151449680328], [0.11870349943637848, -0.3279697895050049, -0.29916560649871826, 0.625725269317627, -0.28378868103027344, 0.17790435254573822, 0.32052022218704224, 0.07029910385608673, 0.5700588226318359, -0.07475846260786057, 0.04480688273906708, -0.07087206840515137, 0.50875324010849, 0.09150826185941696, 0.11720944941043854, -0.2582820653915405, -0.29898178577423096, 0.6009489893913269, 0.08583052456378937, -0.28240251541137695, 0.021950088441371918, 0.10399717837572098, -0.0971895232796669, 1.1802064180374146, -0.0527515783905983, 0.14660918712615967, 0.6448473930358887, -0.2527584135532379, 0.0976727157831192, -0.2679438292980194, -0.2066793590784073, -0.03569866344332695, 0.31385084986686707, -0.21587033569812775, -0.10850759595632553, -0.6319757699966431, -0.1997113674879074, 0.05310356244444847, -0.08901364356279373, 0.19236089289188385, 0.05771715193986893, 0.5800659656524658, 0.16909481585025787, 0.09311983734369278, -0.41160470247268677, -0.1233123242855072, -0.3443041741847992, -0.43151503801345825, -0.10189120471477509, -0.2010248601436615, -0.0049307155422866344, -0.20300371944904327, -0.23410049080848694, 0.6059645414352417, -0.6914829611778259, -0.172409787774086, 0.4079382121562958, -0.12539629638195038, -0.4896804690361023, -0.4134882986545563, 0.21617813408374786, 0.04965503513813019, -0.5338669419288635, -0.0292496494948864], [0.19576767086982727, -0.02091529779136181, 0.30545738339424133, -0.20786471664905548, -0.03463173657655716, 0.3308262825012207, 0.1394231915473938, -0.07614842057228088, -0.3458917438983917, 0.4130097031593323, 0.7471753358840942, 0.1584700345993042, -0.429504930973053, 0.5673240423202515, 0.6067540049552917, 0.05904571712017059, -0.07326263189315796, -0.8068788051605225, 0.10368546098470688, -0.0038284955080598593, -0.5881422758102417, 0.16252920031547546, 0.2542950212955475, -0.3927313983440399, -0.21331322193145752, 0.3090198040008545, -0.09524700790643692, 0.1554812341928482, 0.21477709710597992, 0.41770339012145996, 0.09663699567317963, 0.4119207561016083, 0.10827387124300003, -0.34922608733177185, 0.012970075011253357, 0.4019289016723633, 0.06603246927261353, 0.7884504199028015, 0.2454952895641327, 0.191671222448349, 0.003068289952352643, 0.27498459815979004, -0.14678716659545898, 0.06602916121482849, 0.2830800414085388, 0.23371417820453644, -0.34070855379104614, -0.616040825843811, 0.219572052359581, 0.036986153572797775, -0.3658803403377533, 0.44857257604599, 0.2727567255496979, -0.5807265043258667, 0.19963599741458893, 0.21337194740772247, -0.3924616575241089, -0.4225122928619385, -0.41325634717941284, 0.13544154167175293, 0.06253603845834732, -0.2647680342197418, 0.06221311166882515, -0.637446403503418], [-0.1998608261346817, -0.2909789979457855, -0.10736066848039627, 0.007856635376811028, -0.16072013974189758, 0.09570691734552383, 0.1349882334470749, 0.0667642131447792, 0.036245375871658325, 0.24077636003494263, -0.1914590746164322, 0.20869971811771393, 0.3036782741546631, 0.4734957814216614, 0.25334078073501587, -0.7628180980682373, 0.05242979899048805, 0.05777663365006447, 0.21446038782596588, -0.15160037577152252, 0.34734541177749634, 0.13853271305561066, -0.11958456039428711, 0.1597733199596405, -0.27578189969062805, 0.6426863074302673, 0.3148635923862457, 0.6026719212532043, 0.3633789122104645, 0.5401604175567627, 0.254478394985199, 0.552043616771698, 0.051294658333063126, 0.10668326914310455, -0.1342126727104187, 0.0190430860966444, 0.46299001574516296, 0.21334406733512878, 0.23303033411502838, -0.11133718490600586, 0.024093011394143105, -0.6432889699935913, 0.17785364389419556, 0.2563207149505615, -0.2297934740781784, -0.2600686252117157, 0.19152621924877167, -0.020004332065582275, -0.2500399649143219, -0.012777001596987247, 0.04021287336945534, -0.18350359797477722, 0.05274953693151474, -0.17994999885559082, 0.09195446223020554, -0.46610936522483826, -0.6027986407279968, -0.04021066054701805, 0.41309329867362976, 0.39207929372787476, -0.0328671969473362, -0.00011590374924708158, -0.051884498447179794, 0.4912281036376953], [-0.06996501982212067, 0.11553166806697845, 0.2002623975276947, -0.004238913767039776, -0.033555012196302414, -0.27151942253112793, -0.5066593885421753, 0.09033326804637909, -0.41435348987579346, 0.38580504059791565, -0.07046955823898315, 0.2467813342809677, -0.5805321931838989, -0.23481105268001556, -0.13286826014518738, 0.2483295202255249, 0.019935723394155502, -0.0723615437746048, 0.06406444311141968, -0.22526678442955017, -0.17832157015800476, -0.5640125870704651, -0.5087985396385193, -0.3860015571117401, -0.08260171860456467, -0.8059372901916504, 0.27269914746284485, 0.002276509767398238, -0.17458727955818176, -0.36388880014419556, 0.33337482810020447, -0.47086018323898315, 0.020295672118663788, -0.538769543170929, 0.07254926860332489, -0.064988873898983, 0.2619945704936981, -0.23559272289276123, -0.29967817664146423, -0.1666850447654724, -0.32369565963745117, 0.27492886781692505, -0.22571931779384613, -0.16004757583141327, -0.32360586524009705, -0.38791877031326294, 0.09344737976789474, 0.06644421070814133, 0.1314014047384262, -0.011537322774529457, -0.5093270540237427, 0.38888275623321533, -0.829143226146698, -0.09462421387434006, 0.231284499168396, -0.1805925816297531, 0.7690547704696655, 0.4974859952926636, 0.3356119990348816, 0.5861915946006775, 0.1263178139925003, 0.5765355825424194, -0.06841039657592773, -0.32527002692222595], [-0.46579509973526, 0.04571942985057831, -0.40522170066833496, -0.18091142177581787, 0.31298893690109253, -0.04045163467526436, -0.3248578906059265, 0.4140906035900116, -0.7262383103370667, 0.26239538192749023, -0.22171427309513092, -0.01257377304136753, -0.02875998616218567, 0.3909412622451782, -0.41739335656166077, -0.18413592875003815, 0.21986225247383118, -0.5858478546142578, 0.07150132209062576, -0.5638828277587891, -0.16945908963680267, -0.006751018576323986, -0.04881202429533005, -0.11901459842920303, 0.5041369795799255, -0.45286843180656433, 0.24437078833580017, 0.1571579873561859, -0.2768978476524353, -0.2353363037109375, -0.30601194500923157, -0.21782270073890686, -0.011726614087820053, -0.14150968194007874, -0.38023242354393005, 0.21914486587047577, -0.20982541143894196, 0.18262390792369843, -0.665276825428009, -0.1646941900253296, -0.12384505569934845, 0.10094484686851501, -0.2660835087299347, -0.61822509765625, 0.05731043592095375, -0.5507529973983765, 0.3227568566799164, -0.36942747235298157, 0.22261148691177368, 0.2634187936782837, -0.574898898601532, 0.0008278738241642714, -0.17142105102539062, -0.6409926414489746, -0.6046838164329529, 0.28755077719688416, -0.16350597143173218, 0.06976939737796783, 0.2503197491168976, 0.8232343792915344, -0.20176823437213898, -0.35019657015800476, -0.27865564823150635, 0.11161237210035324], [0.33000683784484863, -0.48316624760627747, 0.522017240524292, -0.04888524115085602, -0.0027672944124788046, 0.13670524954795837, -0.041106369346380234, -0.5271441340446472, 0.012360852211713791, -0.24000322818756104, -0.7923306226730347, -0.13239435851573944, -0.1556328386068344, 0.032709624618291855, 0.08773935586214066, 0.1285473257303238, -0.17772850394248962, -0.11010252684354782, 0.3618302345275879, 0.4459189474582672, -0.2930075526237488, 0.14345823228359222, 0.4023258686065674, -0.12099510431289673, 0.21970617771148682, -0.21019399166107178, -0.03425882011651993, -0.14535224437713623, -0.2350001037120819, -0.17229090631008148, -0.37217801809310913, -0.4639090895652771, -0.18865852057933807, -0.120961494743824, -0.25669631361961365, -0.23884819447994232, 0.5128458738327026, 0.06449125707149506, -0.47075551748275757, 0.121780164539814, 0.18692176043987274, -0.30772554874420166, 0.5214398503303528, 0.12244980037212372, -0.001463323482312262, -0.13014429807662964, -0.4619245231151581, -0.3170223832130432, -0.09786027669906616, -1.0298863649368286, 0.6142644882202148, -0.30476364493370056, 0.26318028569221497, 0.052131276577711105, 0.0752401277422905, 0.09182685613632202, 0.09574934095144272, 0.6527553796768188, 0.19502229988574982, -0.6743870377540588, 0.31740549206733704, 0.1543024778366089, -0.4091380834579468, -0.15106388926506042], [0.19983498752117157, -0.359336793422699, -0.06581030786037445, -0.12298864871263504, 0.3977701961994171, 0.12328844517469406, -0.5047610998153687, 0.15354427695274353, -0.26170191168785095, 0.39226168394088745, 0.010751716792583466, -0.40554648637771606, -0.1860201358795166, -0.0691947489976883, 0.5203065872192383, 0.23828406631946564, 0.398807555437088, 0.06593494862318039, 0.24844270944595337, -0.1732768714427948, 0.6021798849105835, 0.07238087803125381, 0.1446990668773651, 0.19661270081996918, -0.6858392357826233, -0.1244204044342041, -0.3678474724292755, 0.00964247714728117, -0.02804398350417614, 0.20413224399089813, 0.08579952269792557, -0.4140392243862152, 0.38790416717529297, 0.043271753937006, -0.43915411829948425, 0.17269663512706757, 0.18372805416584015, -0.5868872404098511, -0.23242606222629547, 0.43106409907341003, 0.3028978109359741, 0.32086533308029175, 0.037876687943935394, -0.21892911195755005, -0.18296292424201965, -0.7919088006019592, -0.5782920122146606, 